1users	-0.005442681	-0.008425019	0.017699376	0.003128964	0.00092626095	0.009426931	0.0079587605	-0.011712197	0.0023074888	-0.0014139351	
2users	0.0022163943	-0.018663641	-0.0013436985	0.001788117	-0.01816722	-0.004891685	-0.0043021846	0.0050726407	0.0014114265	0.012449808	
3users	0.0051671015	0.016193109	-0.0022203466	0.016649002	-0.011888829	-0.010885599	-0.0033529156	0.0004285831	0.012725952	-0.0014351628	
4users	-0.004835393	0.018479725	-0.0002503462	0.0031473716	0.015929192	-0.0022739456	0.0011383973	-0.0006390564	-0.004623316	0.010190958	
5users	-0.012926624	-0.0007529251	0.00511031	0.011745236	-0.0006094588	0.0088172965	0.02420825	0.0056858077	0.008633851	-0.007552067	
6users	-0.011019251	0.011600683	-0.014129489	0.007449352	-0.014417109	0.0054551926	-0.010526319	-0.0017897246	0.0061171893	0.004832539	
7users	-0.008692516	-0.00094476255	0.00096528564	-0.0025689865	-0.0014995259	-0.0005521194	0.012701967	-0.0049772146	0.009615014	0.010780515	
8users	0.008026714	-2.0950076e-05	-0.010023077	0.020895755	-0.0073722396	-0.010650276	-0.014174193	-0.014109396	-0.015594987	0.0037768413	
9users	0.008314687	-0.005026348	-0.0049727187	0.006066257	-0.0009149023	0.0029183624	-0.00022860308	-0.0067219576	0.009811571	-0.003037023	
10users	0.0015400159	-0.020600956	-0.01170514	-0.0077252556	0.0015180205	-0.0074575227	-0.0017373066	0.0026900256	-0.0068638283	0.005884937	
11users	-0.016878624	-0.0066517973	0.015505278	-0.007961879	0.011815673	0.0032778098	-0.00036422213	-0.011702132	-0.011512786	-0.0039183814	
12users	-0.008202435	-0.0046511553	-0.002044189	-0.013055623	0.015399791	-0.008560994	-0.007159428	-0.0024001047	-0.0019949805	-0.0054339143	
13users	-0.010587489	0.013028383	0.0024889703	-0.0015131584	-0.010284116	-0.000554688	0.008746816	-0.010270259	0.01089889	0.00018229276	
14users	-0.011682289	-0.0067819296	-0.012395693	-0.0038900713	-0.005572193	-0.012457397	0.008879041	0.0043786145	-0.0025100035	0.002743168	
15users	-0.00091245765	-0.008967213	0.0014477682	0.024174994	-0.011763655	-0.0032785707	0.005056884	0.0019613586	0.005881229	0.0061486247	
16users	0.0031940965	0.007169606	-0.0043717055	0.009727978	0.0021744512	-0.022337165	0.0008789187	0.010095673	-0.0125683155	-0.013320737	
17users	-0.013150847	-0.0012853905	-0.01725524	0.0075662076	0.0013409257	-0.0013818264	-0.0023128681	-0.0032610781	0.0018624775	-0.004966419	
18users	-0.0033173698	-0.003522259	-0.006079045	0.00579194	0.008072338	-0.011515209	-0.00017649194	-0.0077803	0.0054961937	-0.006748616	
19users	-0.0021012963	-0.0052409386	0.01202873	0.016380934	0.012595465	0.0022186001	-0.014919966	-0.006588782	0.005767896	-0.002196733	
20users	0.005878319	0.0011802536	-0.0043307575	0.0056128716	-0.0035932367	-0.003238788	-0.00760122	0.004041575	-0.0035059643	-0.012060874	
21users	0.013703385	-8.3572795e-06	-0.018144486	-0.0037153834	0.00223448	-0.0070710178	-0.003824463	-0.009137263	0.0022525268	0.0007404871	
22users	-0.019493328	0.0029556183	0.0014470441	0.0054387194	-0.0042309267	0.009413352	-0.00877395	-0.0066084936	0.0007904412	-0.0123358285	
23users	-0.01155705	-0.0008652374	0.003958398	0.003929842	-0.007065878	0.0007765543	0.008603753	0.01433303	0.01319089	-0.009973196	
24users	-0.0030758493	0.0008009689	0.00040582218	0.0051350365	-0.01700428	-0.01087039	-0.007911499	0.0041884095	0.0035177758	-0.0035519118	
25users	0.0065413257	0.0066904505	0.0017425274	-0.0046741376	-0.012354556	-0.010852354	-0.007731697	0.003622734	-0.008239582	-0.008763169	
26users	-0.0018116478	0.0026922135	0.019784166	-0.010264829	0.017214091	-0.011816283	-0.00983563	-0.012608807	-0.0050018015	-0.004525249	
27users	0.007427781	0.0014469897	-0.011387051	0.008234266	-0.013717035	-0.002980942	-0.011045718	-0.0010078006	0.0016302917	-0.020403577	
28users	-0.0010566096	0.018985622	-0.0052824416	0.00036451482	0.0043554967	-0.0023351754	0.014045705	-0.0023225953	-0.004903625	-0.013702148	
29users	0.0026378434	0.014853205	-0.0022935998	-0.0017975366	-0.008502271	-0.007208408	-0.0130368145	-0.016462086	0.009367351	-0.0050452095	
30users	0.00045395433	-0.0064551113	-0.0025754336	-0.0018671461	-0.015137141	0.0016693335	0.016585821	-0.007319175	-0.0025787947	0.0014115311	
31users	0.009407142	-0.0007477143	0.0043109893	0.019974798	0.0034413035	-0.008815897	-0.0020572697	0.0047932346	-0.0036947785	-0.0023623689	
32users	0.0028291324	-0.0079727955	0.0052266126	-0.014581919	-0.016668202	0.007401039	-0.005627093	0.0047822357	-0.007450635	0.012742265	
33users	0.015351309	0.006343835	-0.014285179	0.008566234	-0.0052284687	-0.010350321	0.0044561313	0.011108556	0.009765869	-0.013541627	
34users	-0.0044082706	0.00013656421	-0.0015477088	0.0059165657	-0.0052210577	-0.004006715	-0.0060962206	0.003083394	-0.0077104676	-0.0031590248	
35users	-0.0070503154	-0.008554446	0.0074482793	-1.0413797e-05	0.0030247478	0.008043889	0.0049531343	-0.0064752977	-0.0029417244	0.0013760331	
36users	0.009031377	0.01406718	-0.009860809	-0.0017393122	0.0010852469	-0.0048267487	-0.0060681487	0.0062959264	0.015666375	-0.005067063	
37users	-0.002512402	-0.011088692	0.017719813	0.008227637	0.0005303562	-0.0027413946	-0.011828056	0.009598482	-0.018233303	-0.0053138253	
38users	-0.0016511764	0.020402113	0.012943932	-0.010143128	-0.008217332	-0.0006760094	-0.0023333805	-0.0015109861	0.011302134	-0.0048603895	
39users	-0.014810971	0.0013143534	-0.0032425008	-0.019451356	-0.0001463136	0.010309839	0.006176928	-0.0066091227	0.0052295825	-0.013068102	
40users	-0.0027869113	0.0037466527	0.0068503255	0.0064127515	0.0019307343	0.013381006	0.008467045	-0.0007893555	0.00044322014	0.00088911114	
41users	-0.011867229	0.013320999	0.006980172	0.0045585823	-0.005873053	-0.0008001981	0.011233168	-0.016319096	-0.009582	0.009879133	
42users	0.00832854	-0.014426086	-0.009830642	0.021765979	-0.008189535	0.013419553	0.00026796828	0.0018178673	0.007066269	0.015463092	
43users	0.0021424484	0.009449777	0.0084764175	-0.0014242801	-0.0066208527	-0.004812245	-0.0009493597	-0.0018114774	0.008412275	0.0039873673	
44users	-9.129406e-06	0.0012825355	0.014324593	-0.0037199496	0.0020494193	0.009742382	0.001572104	0.00777988	0.0067365724	-0.0043008663	
45users	0.0014156166	0.002547792	0.005825056	0.012760066	-0.0032079364	-0.0023522328	0.01111248	0.0126953	-0.012689138	0.0038859108	
46users	0.0029275338	-0.0016603403	-0.009761363	0.003388706	0.0126333535	0.0052018785	0.010267863	0.0018523127	0.0080416445	-0.0016476115	
47users	0.0054974896	-0.011033641	0.0053981235	0.0012424807	0.0017926401	-0.0044652284	0.0037654494	8.269697e-05	-0.0043433015	0.005847187	
48users	-0.009840952	0.005835014	0.0029456515	-0.014205327	-0.002407376	-0.005734412	-0.0046289763	0.005806997	-0.0012301264	-0.005591398	
49users	-0.003367868	0.0081737805	-0.01030037	-0.0012850154	0.006899646	-0.00033930945	0.0075584333	-0.0092991	0.005823686	0.0014569003	
50users	-0.01046017	-0.009993996	-0.01310876	0.00017782094	0.0011823744	0.0049593	-0.0032977553	0.00023940025	0.0020279419	-0.008296187	
51users	-0.0009807583	0.0024811358	-0.002745504	0.005062838	0.003733578	-0.00368368	-0.0115575595	0.009368895	-0.0064400155	0.0145183215	
52users	-0.005712166	0.006015218	0.014693716	-0.0028291834	-0.0019351437	-0.00032310266	-0.010239005	0.0012046526	0.005163582	-0.012502223	
53users	0.0010318925	-0.0011058605	-0.012127502	-0.0020653305	0.0045004548	-0.00027738546	0.006513816	0.0128088975	0.008793513	0.0069284197	
54users	0.0110782515	0.014094398	-0.0009269554	-0.0008877798	-0.0017020159	0.0019075538	-0.023392297	-0.0015829895	-0.010246701	0.004154135	
55users	-0.005351855	-0.0028321396	0.0062542604	0.0081485305	0.012702004	-0.0062743328	-0.021896485	-0.002376889	-0.0022562619	0.013302993	
56users	0.014590458	-0.00035059438	0.019027783	0.0046027	-0.011250678	-0.002735653	-0.005227584	-0.0058464045	-0.005682002	0.017241932	
57users	0.008690192	-0.0017489312	0.0070285923	0.006658865	0.009386491	-0.0055787684	0.0069693606	-0.008507251	-0.0022892058	-0.019032516	
58users	-0.0051432443	-0.016155286	-0.010256314	0.0014478362	-0.014993663	-0.014705926	0.0021369641	-0.016441254	-0.002943081	0.0056788214	
59users	0.0066927476	0.006001129	0.0033501314	-0.0032485726	0.0027552668	0.005047644	-0.011024206	0.0081064645	-0.020567156	-0.008445007	
60users	-0.020710211	0.004548394	0.013851598	-0.010749233	0.01240431	-0.0066196793	-0.011326859	-0.004112965	0.009545312	0.0037715128	
61users	-0.00091351924	0.0059627634	0.0077958866	0.0033028775	0.0035149178	0.010788071	-0.0014408864	0.0002009333	0.002793932	-0.010032037	
62users	-0.015638521	0.00851473	-0.003641265	-0.016585894	0.0021477933	-0.010923102	0.005534001	-0.0017601362	-0.001846354	-0.0012073646	
63users	0.0021670847	-0.020567156	0.0013420779	0.017561348	-0.01536362	0.007700385	-0.008954162	0.004009767	0.007817435	-0.00034256052	
64users	-0.012141703	-0.011102769	0.013131295	-0.0076783774	0.007250067	0.010073224	-0.0015403065	-0.011461884	0.0066859615	0.0025199594	
65users	-0.004100447	-0.002749561	-0.00456678	0.014895188	-0.008413944	0.012275678	-0.011791425	-0.0035396593	-0.0035775842	0.0013284578	
66users	0.0015447064	-0.006171041	0.0024119806	0.012634795	-0.0015101895	0.0014080773	0.009456534	-0.0011460609	-0.0013994036	0.002149073	
67users	0.001458808	-0.012555251	0.0059685344	-0.005484149	0.0067174896	0.004404158	0.0036914498	-0.007492579	-0.0016815852	0.008865346	
68users	0.0052613635	-0.0070363726	0.0051793554	0.014737273	0.0038836102	-0.010467798	-0.005269918	0.0016561045	-0.0036140473	-0.014449414	
69users	-0.006598407	0.0015052273	0.013154671	-0.006751054	0.009840824	-0.019901434	-0.007853726	0.007168373	-0.0011534615	-0.0071975575	
70users	-0.0009652001	0.0040628826	-0.0042922413	0.0019147508	0.0035800585	-0.0046111713	0.00067819195	-0.0094778305	-0.0031740011	-0.0007830837	
71users	-0.0094610015	-0.00876587	-0.00545182	-0.019094821	0.012134794	-9.519205e-05	0.012535333	0.0004917278	-0.001438127	-0.008014009	
72users	0.00015141797	-0.00708756	-4.767243e-05	-0.008490186	0.003315908	-0.0044688922	-0.0066961623	-0.0015221823	-0.0071158195	0.005704294	
73users	0.005618184	0.004621339	-0.010588488	0.008641875	-0.0018315197	0.0017484748	-0.010933467	0.0010015542	0.015326414	0.0053247064	
74users	-0.0002448061	0.002239559	0.0018664397	0.0033552048	2.064297e-05	-0.0027925423	-0.00475048	0.0043799262	-5.1604264e-05	-0.013138259	
75users	0.013381428	0.010006928	0.0013985701	0.0071428795	0.0034027533	-0.0034456204	-0.002981494	0.006989381	0.0023826638	-0.010565488	
76users	-0.0022470679	0.00952255	-0.014604115	-0.01074021	-0.0077756797	0.0036404212	-0.0005997556	0.002517401	-0.0041296477	0.009311982	
77users	0.0026956517	-0.0063505643	0.0054440843	-0.0005465354	-0.0046297843	0.009466858	0.01229336	-0.005565474	-0.0027369861	0.011561701	
78users	-0.02268341	0.007418879	0.009611287	-0.004136771	0.00032456554	-0.002736143	0.007421973	0.013975578	0.016553074	0.015356526	
79users	-0.0059461216	-0.01521353	0.0031480582	0.0024566224	0.005300724	-0.00027476295	-0.0014718418	0.0033798588	0.0052441093	-0.0068491613	
80users	-0.00061389414	0.011198548	0.0072099147	0.002650713	0.008698251	-0.0150332125	0.0035160924	0.013020796	0.0036704764	-0.0017742873	
81users	-0.005894257	-0.011846906	0.00044995392	-0.004231367	-0.0017345449	0.0015439604	-0.005620346	-0.008876821	-0.0059099593	0.007283318	
82users	-0.0014487907	0.009002749	0.009284307	-0.0022194637	-6.933815e-05	0.0073206215	-0.0073434813	0.012384463	0.0003970433	0.0007555456	
83users	-0.004024799	0.009198368	-0.002506368	-0.010192714	-0.008921328	-0.0039958404	-0.0016601407	-0.013790937	0.002240722	0.0018170249	
84users	-0.009349206	0.008511702	-0.0019471553	-0.0010487942	-0.0067414404	-0.008633379	-0.016051117	0.012487311	-0.00575421	0.016227929	
85users	0.0068662283	-0.0029039895	-0.006642673	-0.0019666527	0.0032098081	-0.008327913	-0.0048694853	0.0028726056	0.010705183	-0.0052744295	
86users	-0.0029692876	0.0069511402	-0.012599583	-0.015758175	-0.0021573196	-0.0027093962	0.0055052694	0.0005160101	0.0125099	0.0038527302	
87users	0.012684859	-0.0055086007	-0.012803094	-0.014727154	-0.004353033	0.0014949745	-0.0075245546	0.0019744455	-0.0032749262	-0.0033125007	
88users	-0.00012852658	0.002019834	0.010410029	-0.014103619	-0.0021125893	0.00019905229	-0.009897573	0.0062350146	0.0020136563	0.007975771	
89users	-0.0031674588	-0.0112735825	-0.0020739639	-0.009211805	-0.0014039484	0.00053991325	0.001991507	-0.002408148	-0.008475805	-0.0073747933	
90users	0.0008780169	0.0037296412	-0.010971222	0.0011209033	0.008961896	-0.0012721346	0.001756959	-0.0053573814	0.00054970384	0.004137618	
91users	-0.005036909	-0.0025887862	-0.018744167	-0.0044379896	0.009122061	-0.011996551	0.0114420615	-0.010216316	0.002707749	0.0034943994	
92users	-0.0012547515	-0.0088134445	0.002788647	0.0028299803	0.0052194423	0.0025183607	-0.004035438	0.00023682686	-0.0017117871	-0.014951542	
93users	0.0007296827	-0.0059542684	-0.00022307993	-0.0014008161	-0.0043840343	0.0061093653	-0.0036895962	0.0032320605	-0.0021511735	-0.015509064	
94users	-0.00727541	0.006540569	0.0066766273	-0.016954504	-0.010217522	-0.0067865667	-0.013050782	0.0047434643	0.003589767	0.00588817	
95users	-0.0129716555	0.018852472	-0.000547791	0.0049135867	0.011281978	-0.012062734	-0.015407037	0.0016485332	0.00686639	0.0021949334	
96users	0.0076761944	0.0030226957	0.01574605	0.0022966154	-0.016692137	-0.0077955276	0.0022707093	0.0038302117	0.0021707776	-0.01802194	
97users	-0.0014176389	-0.013134264	-0.003000484	-0.0012184379	-0.0012312949	0.0004470404	-0.009715357	-0.014789614	0.003466805	0.015103391	
98users	-0.006253761	-0.0025736834	-0.021522073	-0.024154866	-0.009532617	0.0055271434	0.002064566	0.01393779	-0.008434013	0.017527075	
99users	0.017249053	-0.0014296046	-0.010926916	0.0037616708	0.003008006	0.001003654	-0.004769292	0.00040155952	0.00062407256	0.0021310614	
100users	-0.0014454045	-0.006633564	0.00972693	3.3362125e-05	7.347891e-05	0.011630248	0.0050720917	-0.013103272	0.010594698	-0.0121255275	
101users	-0.008432763	-0.00044265747	0.0021467148	-0.000698306	-0.0024258264	-0.0017550733	-0.0035359494	-0.009085093	-0.009868385	0.009922404	
102users	0.005705457	-0.0025807973	-0.00207936	-0.016686356	-0.0055867992	-0.00056969025	-0.013587901	0.0007168722	0.00079021254	0.018669425	
103users	-0.017289745	0.016196284	0.009005945	0.00504585	-0.0070931404	0.015657343	-0.007376505	-0.004647641	-0.010046506	0.0019418997	
104users	-0.0032789758	0.013374196	-0.008230933	0.007717492	-0.018123489	-0.011968784	0.013440231	-0.0023352536	-0.018477922	0.0028536702	
105users	-0.0013906687	0.0062824027	-0.0012440617	-0.010083644	0.00033725405	-0.0016030617	-0.005281269	-0.0013938192	-0.006560354	0.007013685	
106users	-0.014511575	0.0068669557	0.007332569	0.0055617457	-0.0011987648	0.0064752735	0.0016386362	0.0032555598	0.0014268117	-0.019111672	
107users	0.012012308	0.0055738185	-0.007091208	0.006688549	-1.708181e-05	0.008277279	0.009886808	-0.0036246465	0.0013189735	0.009153445	
108users	-0.0038038287	-0.00031760096	0.0047329883	-0.0072346525	0.0024745648	0.012898078	0.00750549	-0.00014023358	-0.0015900076	0.0069976267	
109users	0.01655833	0.016825855	0.0034328059	-0.0049272142	-0.0042629284	-1.2582584e-05	0.003021378	0.013107401	-0.016857792	0.010225945	
110users	-0.006201691	0.007527738	-0.005752565	-0.012181796	0.004708073	0.0022148727	-0.0028830464	0.013574608	-0.019619294	-0.0019558151	
111users	0.0077902833	-0.012449177	-0.018536882	-0.010662068	0.014191441	0.00758097	0.006989598	0.0026898847	-0.00035301122	-0.0026675814	
112users	-0.0005396182	-0.006583921	-0.002227351	0.012785448	0.0026648429	0.0011076384	-0.0022892288	0.0011029589	-0.008967587	0.012579556	
113users	0.015370061	0.0135577945	0.0025698564	-0.009379335	0.0012836022	0.013750898	0.002360598	-0.00036141317	0.0068944013	0.0024681035	
114users	-0.011136196	0.00217003	-0.014478609	0.0026935928	-0.0011516651	-0.012781457	-0.0062133423	0.006003892	0.003180649	-0.0066358154	
115users	-0.010234528	-0.007661332	0.001111302	-0.0011774201	0.006274393	0.009964523	0.006450864	0.00017411707	-0.001016171	-0.014881669	
116users	0.01078851	0.021947848	-0.0022191515	-0.01401083	-0.012390572	-0.0031990474	-0.010601306	0.0018671703	0.0008556458	0.0017140942	
117users	0.008240105	0.0139201535	-0.0048417705	-0.0012656921	0.0055433908	-0.0047595496	-0.0019216358	-0.00013570901	0.006364119	-0.013299209	
118users	-0.006144736	-0.0024389732	-0.0072997985	-0.007429982	-0.0009374717	0.0024844508	-0.0023356678	-0.0057731476	-0.00023853342	-0.010396838	
119users	-0.0051699793	0.0027401	0.0074272095	0.0020414018	0.015702844	-0.01503747	0.0055782255	3.695638e-07	-0.0047969446	-0.0016731876	
120users	-0.009281613	0.0009772538	0.008457303	0.008698203	-0.002176519	-0.007228885	-0.007773551	-0.016104138	0.010720006	0.0029928302	
121users	-0.017144503	0.0045984113	-0.009135373	-0.0020581179	-0.004753415	-0.0072817146	-0.015854824	-0.014685332	-0.00043027263	0.0058978135	
122users	-0.0019228825	0.00053729373	0.00012283961	-0.008596056	-0.0055430625	-0.006186199	-0.0049429755	-0.008031904	-0.006153855	0.011744282	
123users	0.00696617	0.017653048	5.0274048e-05	-0.015298848	0.0078977235	0.01277706	0.003640639	-0.008496786	0.011649887	0.017447192	
124users	-0.012186337	0.0038285	-0.008761579	0.012438088	0.0011960192	-0.0011795709	0.0003024946	0.00026666562	-0.0057029836	-0.019967537	
125users	-0.009286419	-0.0038094544	0.0018594431	-0.018649548	-0.0031279277	0.0039756526	-0.01382374	0.0014222952	0.0027667105	0.0032764354	
126users	0.0054254914	0.0055762264	-0.0023162076	0.0119837085	0.011031278	-0.007901341	-0.010606204	0.00070463534	-0.0073120133	0.0020942385	
127users	0.0033788201	0.0045055924	0.0024215486	0.004988452	-0.0043042917	0.011679057	-0.0045196684	0.007011809	0.012864694	0.0017536659	
128users	0.0033945758	0.0015625219	-0.0060156984	-0.01706526	0.006925779	0.0054262723	-0.014710067	-0.0068949917	-0.0016318178	-0.0068219323	
129users	-0.0009380722	0.010383193	-0.007065353	-5.733164e-05	-0.0096417675	0.002805722	0.005926573	0.010053284	-0.0012361421	0.007187101	
130users	0.008041103	-0.0037102236	0.0061886557	-0.0033366405	0.0076738335	0.00501563	-0.0024934644	0.005607246	-0.0069648703	0.0026144886	
131users	-0.0006007428	0.011252378	0.015583669	-0.009771545	0.0058587613	0.0066571846	0.013380693	0.0016111404	-0.018991169	-0.0005926001	
132users	0.0026838456	0.015330906	-0.0019168215	-0.007431338	-0.012190034	-0.004972169	0.005320113	-0.00041316022	-0.0010913035	0.01034289	
133users	-0.006455181	0.00085724285	-0.020335793	0.0026210179	0.010824807	0.0077293497	-0.011568817	-0.0014839735	0.0041997363	-0.00043067313	
134users	0.00094975205	0.0062627713	-0.010202994	-0.0045994734	-0.011204911	0.0054825693	0.0026195454	-0.0018684249	-0.007969536	-0.0033954165	
135users	0.0069540623	0.0053222906	-0.0052558673	-0.010253969	0.018179774	-0.002506457	0.0028723537	-0.0060898573	-0.0063379304	0.0016864922	
136users	-0.0072295736	-0.0005570569	0.0032232346	0.012941131	0.015265564	0.000991082	-3.4618195e-05	-0.0092345625	-0.0071901768	-0.00041635172	
137users	0.0074066585	-0.0051081507	0.012589188	-0.0014405597	0.0027236666	0.0024765104	0.013584269	-0.01323135	-0.003378029	0.004311764	
138users	0.0073189647	0.0065994402	-0.0013059009	0.0012620218	0.009624275	-0.0021539682	-0.003755102	0.004343593	-0.0063044433	0.0011258813	
139users	-0.008063126	-0.006505106	0.010493896	-0.0050531644	0.00051258923	-0.00802944	0.009253611	0.009734757	0.0032163628	0.0028927615	
140users	0.0021805344	0.012237128	-0.0036868865	-0.013176533	-0.0011000114	0.0059122997	0.0028557323	0.0045648934	-0.004704187	0.00967508	
141users	-0.0050410586	-0.017605446	0.003217651	-0.0022698962	-0.0030226337	-0.006410295	-0.0069956924	-0.008428343	0.0037010356	0.0017508114	
142users	-0.0070052687	-0.010681817	0.00046188873	0.0070571294	0.012906209	0.0067931386	0.0023172044	0.011175304	0.0059430706	-0.0060250964	
143users	0.00390846	0.009476255	-0.0027929356	-0.004636662	-0.0028256148	0.008395759	0.0078965975	0.0007207307	-0.006598669	0.005566556	
144users	0.002861147	0.0016590715	0.009210263	0.00859967	-0.009723893	-9.866037e-05	0.0075785653	0.0006594009	-0.004106723	0.020328354	
145users	-0.0043336996	-0.003511566	-0.0015654025	-0.009859833	0.0087746885	-0.018519424	-0.00219186	0.002070885	-0.00053137727	-0.0052204616	
146users	-0.005039175	-0.02240479	0.010968489	-0.0061015547	0.0003325205	0.01502292	-0.007099214	0.011420115	-0.007936673	0.014991217	
147users	0.00019640966	-0.0036831398	0.010436199	0.004415724	-0.0028897936	-0.007888338	-0.016853577	-0.0076604337	0.005536389	0.0058182436	
148users	-0.0041444697	-0.0016152936	-0.0019910706	-0.0075863167	-0.010430536	-0.0047992035	0.0052853664	0.0034890205	0.002203579	-0.0027097445	
149users	-0.012629867	0.009546766	-0.009669946	0.0013021699	0.009907011	-0.0006733247	-0.012566839	-0.00036908063	-0.0013992927	0.00035399786	
150users	-0.0041119372	0.027175471	0.006120911	-0.0012187082	0.01647234	0.00705476	0.0074751535	0.0030858212	0.0028988959	-0.012445686	
151users	0.010918081	0.0029378536	0.006512272	0.00930642	-0.008247525	-0.012255741	0.008617462	-0.0065974286	-0.0027014462	0.0012409827	
152users	0.007985027	0.007867232	0.0023540223	-0.0034017104	-0.009687363	-0.02301884	0.005672872	-0.00929959	-0.009713344	0.005209183	
153users	-0.0046948516	-0.0012194529	0.014415636	-0.0036512914	0.0082222335	-0.012101279	0.0065855067	-0.0051739886	-0.0066182124	0.0054238597	
154users	-0.00854719	0.007925147	-0.003847586	-0.0023800267	0.0023267055	-0.0031740423	0.0013918693	0.012762349	0.0070799515	0.0041761035	
155users	0.005566323	-0.0012147931	-0.0069211703	0.00093441375	0.0013857189	-0.00500248	-0.02108909	-0.006321426	-0.005183815	-0.0033297627	
156users	0.009374563	0.010252343	-0.003270939	0.000894161	-0.009123662	0.0072272127	0.012003862	-0.019068666	0.0029671479	-0.0017935336	
157users	0.0073280395	-0.0065512983	0.012053389	0.010791682	0.014954568	-0.0063164853	0.01303523	-0.010171892	0.0016928415	-0.0060180495	
158users	0.0016957005	-0.016954971	0.0016220884	-0.013485551	-0.0055929725	-0.002228379	0.003041763	-0.0119886175	0.003304971	-0.008203424	
159users	0.005711235	-0.0044647343	-0.0007227005	0.0025728848	0.0065348707	0.008807328	0.0049589514	0.016263077	-0.0067908303	-0.015437351	
160users	0.0047925645	0.006050441	0.007512191	0.0061727487	-0.0056853704	-0.0031728535	0.0025188872	-0.003340699	0.005883883	-0.009078563	
161users	0.005676904	0.00347952	-0.004959222	-0.0030697645	-0.0046761753	-0.005956081	0.01268574	-0.0063085756	0.0033721419	0.0024105825	
162users	-0.0019301248	-0.010728438	0.008684128	-0.003075169	0.0012314848	-0.012155984	-0.004829108	-0.00996096	0.00010799243	0.014001751	
163users	-0.009912964	0.011170931	-0.013431561	-6.498899e-05	0.002822654	0.0004290092	0.0029465752	0.0028507186	-0.0020468524	-0.004075129	
164users	0.0008917986	0.005186838	0.005025851	-0.0052737487	0.0071195797	-0.0012542165	-0.0059715565	-0.0053535807	0.0029970454	0.0134673575	
165users	-0.005725406	-0.008994533	0.010421198	0.015640737	0.005354123	-0.0015816451	0.008388172	-0.0047394307	-0.0031105368	-0.011822086	
166users	0.0045405813	-0.00772691	-0.0049001593	0.0009963827	0.011321402	-0.0049928823	-0.009216711	-0.00096708006	0.004589221	0.010782686	
167users	-0.006249242	-0.0020162268	0.0050122505	0.009624863	-0.0064529777	0.011046443	-0.012095352	0.0049434304	0.0078569725	-0.0021263696	
168users	0.0033061737	0.0035674649	-0.010876476	-0.005979749	-0.0035415401	0.010756843	-0.007718933	-0.00450795	-0.014252718	0.006326258	
169users	-0.0064950045	-0.012209664	-0.0033683358	0.008646865	-0.009188137	-2.0426292e-05	0.00036961833	-0.007590182	0.0003390244	-0.0005140199	
170users	0.006125243	0.0021631108	0.008182411	-0.0009227143	0.0053194547	-0.0029884614	-0.005175022	-0.007358543	0.0018142282	-0.0037286654	
171users	0.00063790946	-0.0017955847	-0.0020051845	-1.1391458e-05	-0.0051146373	0.015354438	0.0046907775	-0.0057607843	0.006489102	-0.018214276	
172users	-0.0037264568	0.0014459334	0.016265523	-0.0053672846	-0.019278051	0.0022467296	0.018497858	-0.004098274	-0.006021963	-0.009148465	
173users	-0.009753242	0.001490712	0.0058816443	0.0015605581	0.0054206415	0.0050462573	0.0059289727	0.008967529	-0.014713611	0.000412187	
174users	-0.013281907	-0.0068434044	-0.0039468263	-0.008209839	0.010395263	-0.008202232	0.0012213518	0.014398665	-0.0036757628	-0.0105092935	
175users	-0.0106880665	-0.0058595105	0.0076476545	0.0006506416	-0.00014984036	-0.016725058	0.008759206	-0.013168878	0.007869299	0.00034374068	
176users	0.0008054822	-0.0013645217	-0.0013721783	0.009012955	0.0019010376	0.005966776	-0.00702432	-0.0027242678	0.005261688	-0.018364262	
177users	-0.00521532	0.0017174635	0.00927	0.0029049746	-0.016745925	-0.0024105457	-0.016758913	0.0039967	0.009989977	-0.0014174259	
178users	-0.003230917	0.0053935526	0.0057634884	-0.0012858636	0.0007111491	0.013426833	0.009179012	0.0015983833	0.0011434883	-0.0035546727	
179users	0.008455315	-0.007125886	0.00064223	-0.017888747	0.009277927	0.012086884	0.017631344	0.0061880792	-0.0058509517	-0.013855296	
180users	-0.011077886	-0.00051148835	0.0075415364	0.008716428	-0.008247067	-0.007826727	-0.0058389604	-0.0030231297	-0.0013690083	-0.004229304	
181users	0.00714494	-0.01273352	-0.012140733	0.010728172	0.0147367	-0.007576517	-0.008084179	-0.0072531505	-0.005423397	0.0066706426	
182users	-0.0028144936	0.01333428	-0.0009561729	-0.0017168793	-0.0046547432	0.0048239417	-0.011618676	-0.0035638586	-0.003224002	-0.00038006858	
183users	0.0010963781	0.007858823	-0.0067901784	0.0060808263	0.008664441	-0.009064211	-0.014280152	-0.00435126	0.010089701	0.013692353	
184users	0.009051394	-0.00020788649	0.0047967457	0.0119720725	-0.024795009	0.0042831353	0.012746043	-0.003158577	-0.0059610447	0.0048958943	
185users	0.013984955	-0.0036026193	-0.009454896	-0.011258088	0.0033009571	-0.006810653	-0.003837426	-0.0022353947	-0.02684648	-0.005936019	
186users	0.0030327695	-0.0041523487	-0.010079008	0.008812961	0.0034781478	-0.005677889	-0.0035143257	0.0060503036	0.003550029	0.0077395393	
187users	0.006007369	-0.0035235777	-0.016673138	-0.0011400735	0.010053463	0.0020759283	0.0010137375	0.0064370474	0.0057693343	-0.005746989	
188users	-0.0047771577	0.004468801	-0.0030642168	-0.0043628737	0.010648584	-0.014315731	0.01349254	0.0052315374	0.002106893	0.005084584	
189users	0.014343012	-0.0009825676	0.006331755	0.008328975	0.00027471693	0.0059406413	-0.0064886897	0.014598983	0.0021078552	-0.013474863	
190users	-0.00512581	-0.016380351	0.008454657	-0.0023080173	-0.0016522376	0.003943423	0.011976579	-0.004556421	-0.008802278	0.0010954306	
191users	-0.006559551	0.0010232641	-0.0020221465	0.0041030482	0.00565242	-0.018313766	0.0017951762	0.00039472285	-0.010873519	0.00877327	
192users	0.00084664364	-0.00129441	0.0029561953	-0.010140986	-0.014173775	0.004014971	-0.017387602	-0.011776862	-0.002450871	0.0037273231	
193users	0.0059699547	0.01335559	0.009077109	-0.008124628	0.00026903933	0.0040546837	-0.0010181612	0.0019972923	0.0046953904	-0.009419528	
194users	0.0042558084	-0.01190507	0.004173471	0.0050411983	-0.0013624579	0.003497752	-0.00048428713	0.010816621	0.007273059	-0.0066613154	
195users	-0.0030270123	0.018846318	0.00087532424	-0.007982228	-0.0022072184	0.009805873	0.004794934	-0.009401109	0.0034849434	0.0061216666	
196users	0.002494796	0.00014541912	0.004840829	-0.0010696371	-0.0050057685	0.013391914	0.009627545	0.0047040493	0.012095942	0.0040981136	
197users	-0.0040027383	0.0020615864	-0.00014174987	-0.01481404	-0.001367597	-0.008419474	0.0024223211	-0.017062208	-0.0041509857	-0.0018640414	
198users	-0.006401069	-0.009233898	-0.00070696743	0.0074372464	-0.020057589	0.004937192	-0.014376076	0.01636943	0.0048193177	9.8205775e-05	
199users	0.0080150375	0.0019561716	-0.001961223	0.0014602877	-0.0006063324	-0.013282679	-0.002287818	-0.0019048952	0.005584852	-0.004878062	
200users	0.001723978	-0.00046467176	-0.0059340145	-0.0020653435	-0.016277913	0.002962334	0.0011395386	0.003635823	-0.009783445	0.0017688685	
201users	0.0037317006	0.00039866313	-0.0030858947	0.004695779	-0.010576884	-0.0053440286	0.0048696664	0.009321576	0.013521766	-0.0070037395	
202users	-0.0004294819	-0.00522987	-0.016381001	0.010168074	0.020079955	0.005232309	-0.0026825964	0.008004922	-0.0018162802	0.00076667004	
203users	-0.005917651	-0.014250621	-0.0055010137	-0.0032132817	0.0010007089	0.0007565557	-0.01559086	0.0056271544	-0.006382274	-0.008747975	
204users	-0.007816645	-0.008661328	-0.012192759	-0.009836664	-0.011040639	-0.001681916	0.0063376664	0.0007446581	-0.0114884535	-0.01259355	
205users	-0.00070768164	0.00073651527	-0.0037849855	0.00042918435	-0.0056309155	0.007132909	0.0045407014	0.0004297403	0.01706985	-0.0032422342	
206users	-0.0028070647	0.009815838	0.0014633888	-0.024257403	-0.009744984	0.0148921395	0.010682019	0.003957735	0.014667751	0.002911201	
207users	0.015869757	-0.01084345	0.014257608	0.008610217	0.0029099686	-0.0026803217	-0.0064296555	-0.006708572	-0.0022844707	0.01002818	
208users	0.012525355	0.0019968536	-0.0038973766	0.0014409531	0.010085811	0.005454482	0.013597036	0.0006345602	-0.0011287603	0.0037641854	
209users	-0.00811279	0.0021990708	0.00876938	-0.0062428527	-0.009009066	0.011227707	-0.00832714	-0.005198991	-0.014546714	0.0071999133	
210users	0.0008516871	0.0130592	0.0006066364	0.017393986	0.0018967435	0.0026463438	0.007850676	-0.0006720994	-0.0045324997	0.0004413059	
211users	0.0069317436	-0.0055559287	-0.0006509783	0.0047363564	0.010565072	0.006379272	-0.004181794	-0.004557103	0.00049597165	0.0019719447	
212users	-0.0123781385	0.004019235	-0.0024509935	0.0039559947	0.00096852257	0.004190233	0.006977685	-0.0013222224	-0.01020865	0.0038402427	
213users	0.0045022597	0.009416267	0.012096593	-0.007484713	-0.0027312292	0.0029213612	0.0009932792	-0.0019869758	-0.004272474	-0.0034270978	
214users	0.0035731657	-0.00771305	0.002651746	0.004641107	-0.003807966	0.0032382759	-0.00025811206	-0.017993603	0.0022209436	-0.0015190147	
215users	1.17899135e-05	-0.0037167363	0.006538286	0.0045977696	-0.0072506843	0.010557207	-0.008767145	-0.0047306377	0.0054126717	-1.8689589e-06	
216users	-0.00088956405	-0.006608537	-0.019553753	0.019256689	0.0044469647	-0.005948177	0.0061316607	0.011337946	0.0019442597	-0.003969227	
217users	0.006852388	-0.006258457	-0.023395013	0.008470536	0.00043140966	0.0018447724	0.025068635	-0.018321492	-0.0093012955	-0.00248675	
218users	0.009697074	0.0065863943	-0.0057381773	0.00291481	0.0071386322	-0.004830015	-0.0078814225	0.007862342	0.0008344081	-0.004248058	
219users	0.004848994	0.008714899	-0.00017235489	0.002416332	0.010964887	-0.005202973	0.011363026	0.0008053592	-0.007836982	0.0037918144	
220users	0.0051347343	0.00400131	-0.00067810575	-0.0008711276	0.0034250154	0.0038828093	0.004520656	-0.001588652	-0.00977289	0.0018045396	
221users	-0.012542196	-0.0068530045	0.018311141	-0.012274741	0.01461444	-0.0035496205	0.010002877	0.0062325075	0.006041083	-0.009968764	
222users	0.010220659	0.009818865	-0.0070575043	0.009348493	-0.0019192143	-0.0034717186	-0.0038172335	-0.010269986	0.010387453	0.0013693545	
223users	-0.012760415	0.009043936	0.0044328887	-1.5194559e-05	0.0010368451	0.0064288364	0.010186165	-0.010406018	-0.0019442918	-0.007690694	
224users	0.0071419277	-0.0017373199	0.0028529682	-0.0009898694	0.004980751	-0.004485538	-0.010100018	-0.0017308609	0.0089594405	-0.016016452	
225users	-0.0002369717	0.010429244	-0.0030134802	0.003785128	-0.009097315	0.00049279275	0.005792883	-0.023615051	0.0026082678	-0.0008384115	
226users	0.0026901101	-0.005741881	0.009803627	0.0046400665	-0.003838653	-0.0020029896	-0.004223023	-0.012666155	0.0032621822	-0.006074983	
227users	-0.0020951438	0.005718511	0.0006903732	-0.0052839564	0.014721762	-0.012764016	0.00011003029	0.010548581	-5.117589e-05	-0.001458117	
228users	0.012114991	-0.001117171	-0.010423365	-0.004581466	0.0052532763	-0.0036952887	0.008918715	-0.026652476	-5.582064e-05	-0.003479724	
229users	-0.009907325	-0.0015462056	0.002146973	0.0070283483	-0.016296407	-0.010319262	-0.008149652	0.0008810159	0.011695238	-0.005401619	
230users	0.02091486	0.005899404	0.0037353195	8.302903e-05	-0.013892316	0.0070919613	0.009992268	0.006864376	0.009453403	0.004884797	
231users	-0.011125402	0.009049575	-0.0005982393	0.007723456	0.015083114	-0.0020652683	0.015300169	-0.008433422	-0.0065007266	0.005191307	
232users	-0.0014492658	0.013231722	0.0014417616	-0.0030964396	-0.010316832	-0.002408771	-0.009762981	-0.012677333	0.0016986731	-0.008983999	
233users	-0.0081502125	-0.015624529	-0.012497746	0.005447813	0.008640837	-0.006030382	-0.008216381	0.0094030285	-0.0054666046	-0.010637028	
234users	-0.01599618	0.0020107983	-0.0067460677	0.0010819457	0.00574783	-0.0006996618	0.015336284	-0.0033151542	0.007216013	-0.014508281	
235users	-0.00834376	0.0005673855	0.0035504932	0.00728373	-0.005302089	-0.003954216	0.01638403	-0.00041914624	0.0075646783	-0.007243162	
236users	0.0031640627	-0.0022697316	-3.7170972e-05	-0.0076937582	-0.004750098	-0.00027840957	0.0064171073	0.0074449317	-0.0007159346	-0.004730982	
237users	0.0043262364	0.0045365538	-0.011755033	0.005659936	0.0019850172	0.01497853	0.011246564	0.0060535953	0.010275349	0.0069122664	
238users	0.0069619445	0.00054172665	0.007335694	-0.0064971787	-0.0064167283	0.008191092	0.012785046	0.0020070365	-0.0019145831	-0.010319603	
239users	-0.006146093	0.0080337925	0.007138699	0.0022397984	-0.00069030945	0.005543815	0.0006652022	0.023314003	0.008420012	0.010941955	
240users	0.0029859229	0.0038875812	-0.0045839576	-0.014353243	-0.008424626	0.0026799606	-0.010179039	0.0005431039	0.009883579	-0.0014909161	
241users	-0.0013813723	0.0019446969	0.0007017049	-0.0012463316	0.013797901	0.0010452879	0.006760197	0.010659997	-0.0051087686	0.0005090402	
242users	0.013682533	-0.00982113	0.017734114	-0.0045935083	1.7399849e-05	-0.0066418387	0.0019948275	0.0051808516	0.003520926	-0.006283949	
243users	0.016795458	0.0033801089	0.010299317	-0.015010057	-0.007823531	0.0090099145	0.005203839	-0.007006907	0.0063427323	0.0013514713	
244users	-0.011210789	0.0025847596	0.00017873489	-0.013830176	-0.013973473	0.0024908362	-0.006419691	-2.2177108e-05	0.0005574241	-0.008230771	
245users	-0.000534543	-0.0017327073	0.0070540467	0.018100183	-0.008107231	-0.005066716	-0.0093302885	-0.0006926347	0.003545111	-0.007753946	
246users	-0.0006424273	-0.0031284147	-0.0042249192	0.0040345527	-0.010267645	-0.0023326539	-0.0050687036	0.011412155	0.013644282	0.0032585417	
247users	-0.005537963	-0.0045121093	0.0089515615	-0.009469477	0.0027838394	-0.0051221666	0.0075066257	0.009377567	0.005534669	0.0034633076	
248users	-0.005842366	-0.0077646305	-0.0005373295	-0.008332909	0.0026663796	-0.0027209003	-0.013091991	0.002283235	0.0034242987	0.006645637	
249users	-0.0011575539	0.0058899983	0.009818555	0.009416287	-0.0018462142	0.006312587	0.0073513603	0.0012454769	0.0085312985	-0.007596484	
250users	-0.008937245	-0.001432516	0.022935603	0.002470845	-0.0044702287	-0.0086879395	0.0031340257	0.00059325196	0.0043347003	0.013153052	
251users	-0.024967507	-0.002660654	-0.0051698005	0.010641057	-0.002450658	0.005001458	-0.012436201	0.005873892	-0.007937326	-0.00016346244	
252users	-0.0056236964	-0.001480711	-0.009174167	-0.000721261	-0.0047027715	0.0024132894	0.0075178496	0.015369893	-0.002866177	-0.004014177	
253users	-0.015977178	0.0037612433	-0.0081277285	-0.008787059	0.015505987	-0.01857441	0.012876674	-0.0012256826	-0.00908505	0.0065207323	
254users	-0.0052144495	-0.003973996	-0.01245769	-0.004045163	-0.0042464104	0.005971465	-0.0059120217	0.0005804183	0.01917026	-0.0020258417	
255users	-0.008009834	-0.006096428	-0.012613605	-0.004499917	0.015806012	0.0038536468	-0.010374013	-0.005941184	-0.00042442328	0.004783898	
256users	-0.008543428	0.007146709	0.010328512	0.004241653	0.0055815233	0.0026921907	-0.0015181266	0.003963241	0.0064375047	0.006569049	
257users	0.007312994	0.014212227	0.0009030213	0.0066999355	0.003950144	-0.0011237756	0.004484589	0.013018379	0.012360489	-0.009169585	
258users	0.003578438	0.0058158925	-0.008836392	-0.0029369069	-0.0040865927	-0.002630788	0.0019783394	-0.005493881	-0.0023208673	-0.0056587127	
259users	0.00017709132	-0.010835134	0.00062139344	0.007983219	0.0033412592	0.00030347976	-0.0025988894	0.003122165	0.0011006873	-0.0016444371	
260users	0.0042870287	-0.010650728	0.010016188	0.01202708	0.017788174	0.0048169116	-0.018393617	0.0055925148	0.0068872985	0.0104323765	
261users	-0.0018038932	-0.008509045	0.019630091	0.0064521427	-0.005244217	-0.003557193	-0.010149713	-0.010018157	0.011740488	-0.0030759205	
262users	0.002996358	-0.005783574	0.0038384933	0.0013613424	-0.02258609	0.0034780116	0.00991053	-0.0071294014	0.0029006598	0.012090154	
263users	-1.8836758e-05	0.008593562	0.0018985778	0.0030797494	0.0014826278	-0.0014962603	-0.003937999	0.007452834	0.003745547	0.0012293818	
264users	0.00066409726	-0.009378284	-0.017376889	-0.004131105	-0.00022540186	-0.005333277	0.003094496	-0.0060671153	0.0012987208	-0.01732666	
265users	0.005677512	0.0034855092	0.010001591	-0.01870228	-0.014376554	0.0014704088	0.009388326	0.0049635773	0.0063029476	0.0015704251	
266users	0.00091370847	-0.013439416	-0.008037393	-2.9487148e-05	0.0006312713	0.007430472	0.008784044	0.0009275327	-0.009237285	0.0011694924	
267users	0.012265398	0.003106541	0.0006577104	0.0008865131	-0.002927882	-0.0071921847	-0.0029528174	0.00063945114	-0.009846274	-0.0011848761	
268users	-0.0058454624	-0.009985219	0.0012184486	0.0061417446	-0.00021808615	-0.00023394306	-0.004653406	0.0008156703	0.012465571	0.012112246	
269users	-0.0057077105	0.012798771	-0.0018782741	0.0032013936	0.0033300687	0.0008613305	-0.010538285	-0.0044944948	-0.0065367795	0.011435281	
270users	-0.0037065395	0.009215969	0.0074166455	0.006454443	0.0062840814	-0.010959564	0.009601807	-0.0018563301	0.0042907284	0.009215864	
271users	0.0025872993	-0.010173952	-0.018851407	0.011670827	-0.0061998945	0.007846591	0.0049125575	0.00085733546	-0.000985702	0.0023590494	
272users	0.003736906	-0.0025330775	0.00033069408	0.0076066325	-0.0022380408	0.00969647	0.004913767	-0.0050832354	-0.014814371	0.010807668	
273users	-0.005334197	0.0024107862	-0.008387692	0.0058263363	-0.0051229936	0.0023995806	0.010070862	-0.011079424	-0.004467706	-0.0069828467	
274users	0.010035672	0.0021349539	0.0067232754	-0.0041785184	0.015171351	-0.011752722	0.008987561	-0.01528698	0.01414367	0.01276416	
275users	-0.009344248	0.009674736	-0.016724877	0.009597337	-0.0023245534	0.01620964	0.01400031	0.0047177156	0.004352132	-0.013831671	
276users	-0.0054808995	-0.002763715	0.0043193754	-0.003271915	-0.016621858	-0.023149759	-0.00092954334	0.002604303	0.002056217	-0.006893731	
277users	0.0016290273	-0.008474342	0.0030285346	0.004566588	0.016540086	-0.017300148	-0.020191677	0.004131235	-0.004422851	-0.0047100205	
278users	-0.013879966	-0.00655778	-0.0040096366	0.016141828	0.012230273	-0.007174143	-0.0077574532	-0.0091536585	0.002750274	-0.012563755	
279users	-0.011211125	-0.008633186	0.018312803	-0.013205226	-0.01075479	-0.0013467285	0.0004123452	0.004803794	0.0018571495	-0.0030283332	
280users	-0.0034077715	0.016501825	-0.0076541477	-0.010045934	0.003911623	0.020078622	-0.009594038	0.008965142	-0.0018158088	-0.011888226	
281users	-0.002491026	0.003343065	0.006633218	-0.004127041	0.0009312264	0.012433817	-0.009906868	0.0037044168	0.016148781	-0.00094156706	
282users	-0.009073089	0.0044676885	-0.0049247583	0.0016902259	-0.00045327077	-0.0052537355	0.0111234225	0.017490689	-0.0012175201	0.004701983	
283users	-0.0014028868	0.00084885705	-0.0053125843	0.01615576	0.002576372	-0.013075085	0.005316766	-0.0030527725	0.011656955	0.014349789	
284users	0.012372645	-0.010385919	0.0026258512	0.0020285088	-0.00071856217	0.00036672782	0.0040624663	0.008124277	0.0017129302	0.016236112	
285users	0.0010346703	-0.012373876	-0.006529492	-0.00972934	0.0016508608	-0.009797895	-0.010622307	0.0040614433	0.00387315	0.0005203994	
286users	0.0057703615	0.0008651074	-0.0029442173	0.0031861665	0.010038985	-0.008886197	-0.0011236693	0.0093921125	0.005159025	-0.002209757	
287users	0.000824206	-0.004361435	-0.0059996336	-0.0007949748	0.0052187694	-0.004096896	-0.004650149	-0.0212286	0.008201668	0.011613996	
288users	0.014996081	0.005945792	-0.00072264334	-0.009157422	-0.0074292454	0.0055404324	-0.004745775	0.0010009399	-0.0042931763	0.019574624	
289users	-0.007233951	-0.005773458	0.008462028	-0.0012677927	-0.0039644903	-0.0030495522	-0.0075512417	-0.0027219104	0.009475647	-0.0023374725	
290users	0.008198331	0.0065855095	0.008566595	-0.017488932	0.0023238799	-0.00562871	-0.009867438	0.0025966815	0.010282042	0.004872888	
291users	-0.003327229	0.010234296	-0.005889772	-0.008756377	-0.0064802724	0.019432794	0.0015934532	-0.014062949	-0.006975791	0.013514968	
292users	0.014013448	-0.004623286	-0.0093455175	-0.0010225752	0.0018620552	-0.003638977	0.0018242176	-0.0022763992	0.014739479	-0.00446383	
293users	-0.011801162	0.006944836	-0.00027052747	-0.011773956	0.0002455309	-0.009120907	0.003930908	-0.0037136055	0.0031593542	0.007682178	
294users	-0.015857548	0.0035037035	-0.010040792	0.01801254	-0.005791255	-0.015167872	-0.0032077844	0.017270569	0.006587753	-0.009967902	
295users	-0.004293302	-0.0004935528	0.009478039	0.0050168396	-0.010901132	0.01965762	0.012805398	0.012358164	-0.0014709298	-0.014458312	
296users	-0.012462395	-0.003017752	0.00430753	0.005267096	0.0065968283	0.022923809	-0.00083685864	-0.01768305	0.00058519345	0.0009628236	
297users	-0.011337977	0.015365743	-0.011585078	-0.002409367	-0.0035932267	6.826453e-05	-0.020346966	-0.002863082	-0.0021170005	-0.00028136317	
298users	-0.011141459	-0.0034697847	-0.021297684	0.0020805341	0.012107469	0.0017214352	-0.012674959	0.0152615	-0.012316901	0.002555786	
299users	0.0075517297	0.002464074	-0.0065392484	0.00045865067	0.008687229	-0.021082252	-0.0025615473	-0.0026098406	-0.0017089853	0.02167198	
300users	0.005272753	-8.518159e-05	-0.011324303	0.00097632257	0.009582298	0.010040099	-0.005534217	-0.0034117543	-0.0062662037	0.004538739	
301users	-0.005285623	-0.016313836	0.0033821086	-0.009844185	0.004999392	-0.0011880945	-0.01664517	-0.0047369394	0.021268941	0.0040161195	
302users	0.0005417184	-0.0059500253	0.0007049166	-0.005650956	-0.017070234	0.003203426	-0.007891412	0.0075208647	-0.012310266	0.010117607	
303users	0.013004371	-0.008088685	0.0028610213	-0.0054326546	-0.0041298834	-0.0036263182	0.0073976815	-0.006964611	0.014478149	-0.0030225017	
304users	0.006314393	0.0008395856	0.004501906	0.0027137098	-0.011761587	0.004653831	-0.003954084	-0.021667892	-0.0010150855	-0.008788319	
305users	0.004849941	-0.006308196	-0.009017481	0.0064342804	-0.0071337563	-0.009612613	-0.006171753	-0.000687133	-0.0022612333	0.013142828	
306users	-0.010373705	-0.019878397	-0.0041789105	-0.0063770856	-0.008453391	0.003648717	0.0016366335	-0.00080633856	0.0008509548	0.0029132795	
307users	-0.0035125879	0.004340297	0.00071663834	0.008746544	0.006989246	0.0002322235	-0.0059005525	0.0052409945	0.0005657268	-0.0140831685	
308users	0.01736785	0.015362689	-0.014758554	0.0028222604	0.00798947	0.01939307	-0.002801731	0.00010677716	-0.009270645	-0.015111962	
309users	0.003483328	-0.00032760782	0.0038458663	0.0016781065	0.0040477123	0.013832387	-0.0026263746	-0.0029787242	0.010201051	-0.00030667896	
310users	0.009563284	-0.00023516371	0.0142047275	0.012604028	0.0081958845	0.012275789	0.0020221698	0.008698884	-0.014592482	-0.016202323	
311users	-0.007390487	0.0043507437	-0.0060512875	0.0027000387	0.004560639	0.008966557	-0.0061515896	0.00019029307	-0.00069632416	0.013911785	
312users	0.008197243	0.008715774	-0.003676711	-0.015313173	-0.007058933	0.0018859142	0.007955819	0.004082697	-0.010360544	-0.0027910792	
313users	-0.018392755	0.005328159	0.0037892766	-0.0049089724	0.002592504	-0.024369204	0.014469703	-0.00626716	0.0030191615	-0.007836559	
314users	0.0022564167	0.00097130943	0.0012130063	-0.00043544924	-0.015851516	0.0047591743	-0.0060075317	0.009326211	-0.0055557755	0.0038277677	
315users	0.0047179977	-0.012870728	0.0018773115	0.005509109	0.007820774	-0.006770236	0.0028694689	-0.009514239	-0.0049624518	0.005263106	
316users	0.011760258	0.0035866	0.007204245	0.010099078	0.0013346781	0.003475368	-0.0050684474	-0.0077359835	-0.001055464	0.004632411	
317users	-0.0045768865	0.0013103464	-0.004789539	-0.0021044791	0.00048171953	-0.009366948	-0.011174001	0.00042149005	-0.0047326246	0.009648702	
318users	-0.0047912817	0.006897051	0.0014401422	-0.01092884	-0.0053677573	-0.008488191	-0.02008714	-0.033264603	-0.006652147	-0.0033376464	
319users	0.0020302236	-0.0047622193	0.023797661	-0.0024006162	0.008339909	0.004971784	-0.0033825596	0.0030680827	-0.012571433	0.0005586926	
320users	-0.0062482376	-0.018059595	-0.002245373	-0.011752031	-0.0011531315	0.0018891154	-0.0018380024	0.01164545	0.00042359403	-0.017124554	
321users	0.0018415884	-0.006062697	-0.0008141471	-0.002470004	-2.4092344e-05	-0.005919297	-0.007962055	0.001810657	-0.003125104	-0.00027025578	
322users	0.009393627	0.0063383235	-0.0035711501	0.002076176	0.013671337	0.0013698767	-0.00027374286	0.024694687	0.013503895	0.0012030427	
323users	0.019288866	0.0045010806	0.0059599783	0.00263548	-0.0101740975	0.0003181153	0.003030069	0.008883968	0.009113078	-0.007666683	
324users	0.01886528	0.011105097	0.006529397	0.007949143	0.0064570876	0.007856131	-0.003585624	0.008138414	-0.010029495	-0.00072254264	
325users	0.00975137	0.0070698187	-0.013965288	-0.008686138	-0.005723182	-0.0045509953	0.007597497	-0.009950812	0.006541614	-0.013763733	
326users	-0.004438467	0.0030932375	0.0068693794	-0.00624608	-0.004059672	-0.009521649	-0.017812178	0.0053177807	-9.699339e-05	-0.00025767263	
327users	0.00872011	-0.008455504	0.007469554	0.007018912	0.005862782	-0.012886162	0.017088246	0.0017484784	0.00426695	-0.0022120217	
328users	0.006346134	-0.010561075	-0.010110512	0.010850194	0.0054591587	-0.0054299254	0.0052033807	-0.017539678	0.0033841026	-0.014554306	
329users	0.00011995332	0.0055549713	-0.00092959637	0.001570787	0.014271413	0.00040735665	0.005426516	0.003459486	-0.0055194255	0.0060892017	
330users	0.00040431065	-0.012805979	-0.0033624496	-0.014895811	-0.008852207	-0.014222817	-0.0054799044	0.010651351	0.0090152435	0.008555199	
331users	-0.0031963896	0.0010924836	-0.0050175986	-0.0035509903	0.0047529666	-0.0056759613	0.002709764	0.016168945	0.007888666	0.002141394	
332users	-0.006265676	-0.007403032	-0.008583588	0.005412886	-0.0009505908	-0.000679557	-0.0056235185	-0.00077514333	0.011282615	0.00601239	
333users	-0.01086839	-0.005154783	-0.00756144	0.0016770293	-0.0047072833	-0.016700156	-0.0089586945	-0.0036758175	0.00828486	-0.0021000744	
334users	-0.0030184416	-0.013120271	-0.0069256877	0.008467676	0.0050485395	0.006879128	0.0091633145	0.003703681	-0.022987973	0.0075404383	
335users	0.0033726136	-0.0074577024	0.00962926	-0.0061051627	0.0077232174	-0.017678775	0.00446181	-0.0046755266	0.002024238	-0.0034363675	
336users	0.008556142	0.0028431257	0.0005019324	-0.0082859155	0.0058382885	0.006740102	-0.0028719779	-0.02550785	0.0031797388	0.002086621	
337users	-0.006381096	-0.0054703075	0.008643889	-0.0072000124	0.0054040137	-0.010743415	0.0034838119	-0.0030923013	-0.011392858	-0.022032399	
338users	0.0020231514	0.0077874563	-0.010144752	-0.002904901	0.0040726643	0.008199602	0.0026172283	0.0053871297	0.017254865	-0.013035231	
339users	0.0068986006	-0.00046875005	-0.0040289	0.002032949	-0.013185093	-0.004237683	-0.009760107	0.009813401	-0.016565796	0.0068663787	
340users	-0.013276181	0.0041132364	0.008039005	-0.007006206	-0.004399152	-0.0060133836	-0.004875414	-0.014331692	-0.002469196	0.017053977	
341users	-0.009301118	-0.0062226704	0.00030420953	0.0008015466	-0.00070739974	-0.013247472	-0.00387662	-0.0086452095	0.0039787986	0.009373681	
342users	-0.003629626	-0.0072162757	0.015619638	-0.009339928	-0.00021338733	0.0053466903	0.0021696573	-0.0018135896	0.0014994887	-0.004368902	
343users	-0.007022174	-0.0063241255	-0.010355568	-0.010136267	0.0013055558	0.010989408	-0.007611203	-0.0019009508	-0.007859211	-0.008162668	
344users	-0.0107362	0.00089055346	-0.0072887773	0.0022936412	-0.014590208	0.0023875828	0.0021943129	-0.00077913486	0.0071323197	-0.008592519	
345users	-0.012480183	0.0028650912	0.0030711605	-0.012706249	0.002850532	0.015666122	-0.011750252	0.009429903	0.007862376	0.00993349	
346users	-0.005475344	-0.009096346	-0.0030511573	0.0020497534	0.021018654	-0.006892594	-0.01816601	0.0030911355	0.0039973604	0.007308028	
347users	-0.0059229378	-0.0076951496	-0.019186046	0.012956486	0.013723029	-0.004040649	0.023352113	-0.00040801222	6.17117e-05	-0.00793451	
348users	0.004016891	0.0072156684	0.006695511	0.0033590049	0.012937262	-0.0031430244	0.011683208	0.005494971	-0.00088266237	0.011325844	
349users	-0.007532732	-0.0024203134	-0.0007475272	-0.014716335	-0.008673375	0.008379274	0.009016473	-0.0012955528	-0.014548667	-0.002837649	
350users	-0.009914782	0.010008423	0.0122012235	-0.015904276	0.0031475134	-0.002676881	0.00036240518	0.0040882393	0.0114169195	-0.00657504	
351users	0.0052494346	-0.0029066578	0.0033490248	0.010551577	0.010121957	0.0022565587	-0.0043302523	0.0040588877	-0.0089804	0.009715595	
352users	-0.005431618	0.0005407873	-0.007018913	0.007260646	-0.008569016	0.01642022	-0.016664576	-0.0019881644	0.019823113	0.000114697665	
353users	0.0041114273	0.00077314023	-0.002792823	-0.0053652893	0.0007922559	0.010719685	0.0033836325	-0.0023102055	-0.0015092604	-0.017870704	
354users	0.0023396774	0.0010074825	-0.0038550617	0.001156618	0.001924268	-0.008446811	0.0039451104	0.0094193	-0.008377362	0.011626743	
355users	-0.0012769444	-0.0007617952	0.0038402528	0.0076106684	-0.007862249	0.014075994	0.012246822	-2.0545082e-07	-0.0066287015	0.0007903732	
356users	-0.0066264137	0.012776466	-0.00068828854	0.0032561002	0.0003484239	-0.0017829593	0.0021745537	-0.017161537	0.0130631365	0.0057812114	
357users	0.009847979	0.009560482	0.0021037674	0.0037936422	-0.0013303132	0.007808815	-0.00021271346	-0.008764011	-0.017238809	0.0044232877	
358users	-0.008780461	-0.00042728646	0.0059045865	-0.0123058595	0.0028343094	0.00022627543	-0.00096442434	-0.0023371044	-0.003644888	0.015370617	
359users	0.0130919665	-0.0076156636	0.0011954056	0.008760632	-0.0009474227	0.0141744865	-0.0014288792	0.0054734647	-0.003733177	-0.0009016074	
360users	0.0012114657	-0.0030571043	-0.015558484	0.0075889523	0.0042037703	-0.001596985	-0.0006177608	0.009324447	0.01147264	0.009979471	
361users	-0.011154137	-0.0047498257	-0.010941474	0.0035953997	0.0019655162	0.0039661084	0.0057892636	-0.016599648	-0.000296473	0.00397956	
362users	0.018160395	-2.9324257e-05	-0.006299905	-0.0143740205	-0.006888011	0.00039381254	-0.0031547567	-0.007587255	0.007435021	0.006020984	
363users	0.008272192	0.0016653585	0.0031375794	-0.02375238	-0.0009948156	-0.0015865255	0.011473137	0.0005564661	0.0043025236	-0.009389641	
364users	-0.00094663806	0.0026081621	0.002321827	-0.0007287322	0.014140418	0.0004963455	0.0041349623	0.0073801405	0.0024312073	-0.0073181433	
365users	-0.0065108263	0.009348489	-0.013675017	0.002881034	0.004973373	0.0071837804	0.0041684504	0.014027917	-0.008026141	0.001542241	
366users	0.014939712	-0.00023659124	-0.011995577	-0.00404733	-0.009940755	0.00071971293	-0.0043836744	0.013183238	-0.007873426	-0.00026660756	
367users	-0.007017991	-0.0055013606	0.008921605	0.01058331	0.0012383937	0.0034770584	-0.01085943	-0.0064313393	0.010427726	-0.0007614389	
368users	-0.0020491905	-0.0066488883	-0.016024224	-0.0145537015	-0.0007815522	0.009096629	-0.014252574	0.014342647	0.0095948	-0.00036745387	
369users	-0.0049467054	0.007429381	-0.006918189	0.010124602	-0.0074556544	-0.009607752	0.010241307	-0.0067606834	-0.00251964	-0.006152252	
370users	2.4456347e-05	0.003626869	0.00044905738	-0.002252207	-0.00061227934	-0.0017497871	-0.005799205	-0.004040821	0.007906016	-0.0028692703	
371users	-0.0022938242	-0.0058588046	0.0058217705	0.002568771	0.013748562	0.0038553013	0.0028276343	0.0035329848	-0.009948549	-0.007936795	
372users	0.0011417868	-0.0006296874	-0.0038562885	0.0034729962	0.005591043	0.016372299	0.014814442	-0.004180748	-0.0032181353	-0.0101429075	
373users	0.00038481186	0.0012270639	-0.009195628	0.027064757	-0.0029762844	-0.004419442	-0.0042052004	0.004559196	0.0020878694	-0.0006388944	
374users	-0.003350773	0.0005255327	-0.006663814	0.004359466	-0.004816564	0.008120466	0.016321437	-0.019659417	0.0064742593	-0.004225661	
375users	0.0035127753	-0.00030631083	-0.007255285	0.009405653	-0.0025018568	-0.010783791	-0.0025285291	0.014645068	-0.01683202	0.0049448004	
376users	0.005550972	0.009601593	0.0007474894	-0.004867479	-0.0028946793	0.009763565	-0.0053217625	-0.0127437245	-0.0032355492	-0.010729814	
377users	0.017250229	0.0017900898	0.01266189	-0.006112049	-0.00545891	-0.004967373	-0.0002667121	-2.253868e-05	-0.008122139	0.009070078	
378users	0.0063822805	-0.001789459	0.004965219	-0.0023436768	-0.0124880085	0.0021218797	0.0016920145	0.010051958	0.004583569	0.010501618	
379users	0.003635793	-0.0023822412	-0.016940976	-0.0026388199	0.0068826126	0.0048955115	-0.00425363	0.002857723	0.0058122096	-0.0071194745	
380users	-0.0059473794	0.0062558483	-0.0007957124	-0.0009940204	-0.011983799	-0.013587341	-0.0075226817	0.0015720852	0.007714329	0.0016552649	
381users	0.0032259244	0.00085962185	0.0015185004	-0.009407838	0.0055606933	0.0013733216	-0.0017612078	-0.007029242	0.007602663	0.0005031045	
382users	-0.0053303116	0.012847044	0.011110079	-0.0012892024	0.00052619464	-0.0021205742	0.008889811	0.011719068	-0.0038925223	-0.012079842	
383users	0.0017932819	-0.011425797	-0.006230272	-0.0015864235	-0.0046394886	0.010286716	0.00854513	-0.0014654556	0.015024937	-0.013939739	
384users	-0.0012327171	0.0026426355	-0.0028838392	0.004703022	-0.00732668	0.0025358095	-0.0004909036	0.008563975	-0.0019404121	0.00850937	
385users	0.0015706501	0.00647226	-0.0007644581	0.006606267	0.0052314447	0.0012688569	-0.007062886	0.003303275	0.004345841	0.0086287195	
386users	0.019744352	-0.003473337	-0.013000157	0.0067012254	-0.0141261555	-0.02859898	0.0012173848	0.0153618865	0.005285639	-0.0056160726	
387users	0.00062453037	-0.006798527	0.0010272712	-0.00021886434	0.015157626	-0.0040906332	0.0046528983	-0.011434329	-0.0058061765	0.007978918	
388users	0.007677354	0.0072510433	0.006856257	-0.005472192	0.001685282	0.004998043	0.0036886828	-0.010625944	-0.010736364	-0.0018127032	
389users	-0.014705831	0.008665067	0.010897161	0.010246392	-0.0032651173	0.0041027367	-0.0035892976	-0.004104354	0.014191435	0.00010861759	
390users	-0.008704349	-0.0069234953	-0.0030291136	0.00019239998	-0.012383796	-0.0033426813	0.004754189	-0.008778008	0.0014616555	0.006901143	
391users	0.0051692897	0.009873	0.008925498	-0.022824576	-0.000745177	-0.015927166	0.01297594	-0.0121224485	-0.0036486995	-0.0058155274	
392users	0.00090590253	-0.002583331	-0.001591267	-0.0056825457	-0.0034625763	-0.012366352	-0.0062647583	-0.0067250137	0.006203162	-0.014763051	
393users	-0.009881664	-0.0040894407	-0.00042285406	0.0018586838	0.004019764	-0.00041968375	-0.0054708757	-0.006151248	0.0036817298	-0.0063126124	
394users	0.00091702957	-0.0034927763	-0.008197108	-0.00025075008	0.007867416	0.010853978	-0.010387651	-0.0069222464	-0.0020691357	0.011548487	
395users	-0.007212943	0.0066439738	-0.0016043814	-0.010512955	-0.0029970936	0.007206406	-0.0142607335	0.008750996	-0.009517201	-0.0013516283	
396users	0.0030902037	-0.001767124	0.0075062453	-0.002088921	-0.0061210366	0.01065744	0.02383027	-0.006453487	0.0057838657	-0.011736997	
397users	0.006689621	0.002066654	-0.00064152834	-0.011596153	-0.013356097	0.012307209	0.0039498974	0.00070925435	-0.0022218055	0.012062997	
398users	-0.0021434654	-0.007947041	0.006060369	-0.013739599	0.0029932754	0.0056200307	-0.005522127	-0.003981896	0.012536604	-0.0050631105	
399users	-0.0057829223	0.010991482	0.00853106	-0.013715339	0.012723853	0.0063062436	-0.003508821	0.013842664	-0.0043762983	-0.012532647	
400users	-0.007875785	-0.00557035	0.007259405	-0.00847075	-0.0006673868	0.007337271	-0.00031912123	0.0011789567	0.0051639327	-0.00022503082	
401users	0.00022116456	-0.0053755646	0.008773011	-0.007567934	0.001449611	-0.013785067	-3.352951e-05	0.00962082	0.0053154603	-0.0037891744	
402users	-0.006670807	0.009295829	-0.01875778	0.0012366741	-0.009751417	0.0063304356	-0.00125992	-0.0003695386	-0.012030982	0.007834031	
403users	0.010216775	0.010866491	-0.0046398477	-0.0069316337	-0.011226213	-0.010595472	0.014795676	-0.009600719	0.0031161336	0.014016807	
404users	0.002431987	0.013263129	-0.003412794	-0.009103385	0.0024146538	0.00016102742	0.005762081	0.01613165	-0.005600122	0.008479056	
405users	-0.018269826	-0.007968979	-0.002180511	-0.010975439	-0.017205648	0.005580354	-0.006161283	-0.01425424	0.0018005103	-0.0005734514	
406users	-0.004335189	-0.00546401	-0.0030231422	-0.00025173667	-0.0014923309	0.0011119457	0.0023383654	-0.003935449	0.01352882	-0.000701206	
407users	-0.006528105	-0.007722886	-0.020337302	-0.003625819	0.0023666518	0.005451091	-0.008676862	-0.0025657385	-0.0032815957	0.0021190727	
408users	0.007370631	0.006679606	-0.0005677012	0.0069601946	-0.010538441	-0.003163793	-0.014889781	0.009291431	0.004783033	-0.0009070765	
409users	0.00021064347	-0.0050083515	0.0010902451	-0.0004749213	0.0005856492	0.0031742477	0.004738068	0.0022179224	-0.00038358077	-0.003942046	
410users	0.008175911	-0.0025861897	-0.0046740435	-0.0038494563	-0.0019111263	-0.0028311603	-0.0008283847	0.00089636433	0.012669833	-0.011103107	
411users	0.0018704768	-0.0032823463	0.000742524	-0.006655345	0.0067761745	-0.0149209425	0.01537486	0.0053621284	-0.0030599313	0.0029373383	
412users	0.010473462	2.0888601e-05	-0.0069324104	0.008154387	0.00093105604	-0.00831771	0.0094234245	0.010086128	-0.011131703	0.0038480903	
413users	-0.0038638725	-0.008940564	-0.010734583	-0.0022483368	-0.0020680588	-0.008770788	-0.0073735034	-0.00047343396	-0.0010851719	0.0037724017	
414users	-0.0012208163	-0.012510625	-0.00526894	-0.001260633	0.0045108628	0.0064560836	-0.0014677376	0.016902436	0.002387402	0.00043631202	
415users	-0.0030840905	0.017781554	-0.00022644646	0.0044095214	-0.00093322503	0.0043710517	0.0034314613	-0.008215261	-0.0074314945	0.0076969243	
416users	-0.016287342	0.024469126	-0.008020986	0.0028847097	-0.009200751	0.0026597993	0.0041861376	0.0056352983	0.007942773	0.0028972256	
417users	-0.016987551	-0.0076268935	-0.016472805	0.0033254633	0.014467022	0.0060845446	0.0014453627	-0.004662748	-0.00030253464	-0.0129293725	
418users	-0.0043980163	-0.006140338	0.0054368107	0.0077772434	0.013952613	0.0038763948	0.0038686441	0.011031242	-0.01122022	0.0038811953	
419users	-0.0052894647	-0.007856993	-0.0019658147	-0.011197362	-0.00029745212	0.005888374	-0.01023254	0.016023	0.002635119	-0.024772609	
420users	-0.015972145	0.0015922618	0.003407949	-0.0031406386	-0.006653348	0.0016228262	0.005153424	0.0071343305	-0.01672927	0.006316032	
421users	-0.004283387	0.001061709	-0.027584707	0.0024261745	-0.002770132	0.0035522957	-0.0020617615	-0.00065944623	0.00118444	1.7159575e-05	
422users	0.002602409	-0.0031463387	0.01195824	-0.0013433693	0.008854235	0.0030420534	0.0027481574	-0.0064373217	0.0018110386	-0.0015710575	
423users	0.00067939487	0.009636188	-0.0041280882	-0.005188881	-0.007301672	-0.0041267867	0.0020139632	0.0059578037	0.01195234	-0.002123017	
424users	0.0011443305	0.020607127	0.0069170194	0.009428963	-0.0018326349	-0.00094696274	-0.001401433	-0.0011241944	0.0035907738	0.0071077175	
425users	0.013041162	-0.0044700294	0.012058995	0.009083145	-0.00574896	0.00945266	0.0017930681	-0.023644784	0.006603356	-0.012992088	
426users	0.007705727	-0.0016702455	-0.0056933262	-0.007684894	-0.0003104578	0.000687571	-0.00058477314	-0.008942115	-0.006904979	9.3292714e-05	
427users	0.014398785	0.004628905	-0.005359388	-0.011918904	0.0022014645	0.004002032	-0.0054603703	-0.0066251988	-0.018829318	-0.002799017	
428users	0.0030699254	0.0077386554	0.010426033	0.003976699	-0.0042956932	-0.009306438	0.0046568373	-0.006133926	0.0025486741	-0.00578553	
429users	-0.011523202	-0.0006664034	0.014287147	0.011775163	0.0037125994	-0.005452999	-0.007138719	0.002165183	0.014006067	-0.011869427	
430users	-0.0031559041	0.00741051	0.005547052	-0.0012833208	0.009371006	0.0054501467	-0.0028958293	-0.0025482015	-0.012702249	0.017205931	
431users	-0.0020720589	-0.008617351	0.01764577	-0.00320157	0.020123517	0.008594857	0.018687017	0.00490354	0.0031685033	-0.0009450418	
432users	0.011522277	-0.0009281295	-0.0058276365	-0.0044044727	0.015038248	0.022377368	-0.015950639	-0.0002683138	0.012753953	0.0065114847	
433users	-0.016575787	0.0022715575	-0.01068201	0.0005122888	-0.0014893604	-0.0066626235	0.0006514047	-0.003995064	0.0019209263	-3.3665542e-06	
434users	-0.011062552	-0.0087437825	-0.0009663994	-0.0036521167	0.005684268	-0.014225316	-0.0035512764	0.002571048	-0.0029906365	-0.0017597153	
435users	-0.009245816	0.02000149	0.004416929	-0.004622653	-0.0041370643	-0.009554839	0.009522687	0.002104561	-0.0009767857	-0.0012736528	
436users	-0.0061459183	-0.027647773	-0.012673849	-0.011571537	0.01490617	-0.0035465853	-0.00036508855	-0.0060326136	-0.007258612	0.0030658373	
437users	-0.010032453	-0.0036326167	0.0014748866	0.007900721	0.0034714972	-0.0050155977	0.0035651005	0.004348818	0.0053474754	-0.0026713999	
438users	-0.008887887	0.010620558	0.0028335906	-0.009718538	0.0049709408	0.019161005	-0.003023024	0.0061171097	0.0031792144	4.3884058e-05	
439users	-0.0027084742	0.010747899	0.00512636	0.009449433	-0.008347352	0.00037521467	-0.009412184	-0.018350078	-0.004854299	0.012495358	
440users	0.007909322	-0.0006532653	-0.0027594166	0.005896416	0.005220281	-0.012813875	0.0074654236	-0.0148656005	-0.012000767	-0.0034995861	
441users	0.0025409318	0.015829908	0.00055355974	-0.01828797	0.007640657	0.0016922624	-0.009561244	1.4224545e-05	0.00069604575	0.0042483546	
442users	0.0051739537	0.0019213224	0.0021287894	0.006428994	-0.0064339535	-0.00022076721	-0.008484302	-0.00323501	0.0060352725	0.012370081	
443users	0.0015552788	0.009432861	0.012895128	-0.0054435804	0.0051354114	0.0042817523	0.0041692727	-0.0029521459	0.0067117643	0.003914132	
444users	-0.009056609	-0.0089695025	-0.0020746156	0.00300287	-0.02023918	0.012687569	-0.0019216639	0.0021727323	0.0069180354	0.0021835878	
445users	0.0146501595	0.01286524	0.012978559	0.012007839	0.0021506797	-0.012645352	0.0046595964	-0.021342622	-0.0051880395	0.0035264692	
446users	-0.0035722353	-0.0012742528	-0.0032866246	0.0029090038	-0.007106965	0.0047377334	-0.00500918	-0.009696377	-0.01624747	0.008162366	
447users	-0.0034169068	-0.006806341	-0.009323275	0.006088463	-0.0019869837	-0.0032177551	0.003890396	0.012081422	0.0047822352	0.0069346973	
448users	-0.016183319	0.005045213	-0.007924376	-0.012485092	0.00039951332	0.0012129534	-0.004288606	0.0004215078	-0.008773338	-0.0078050043	
449users	0.0054841465	0.0037938333	-0.0016058012	0.009219179	-0.0026384608	0.0027569046	-0.0006614916	-0.01022147	0.0060078558	0.0061970484	
450users	-0.003359289	0.00084716134	0.010452943	0.0016950752	-0.0007560618	0.002392173	-0.008932744	-0.015344272	-0.0019507558	-0.0035742607	
451users	-0.0010536286	-0.0011688716	-0.006172419	-0.0014223933	0.009476372	0.009558917	0.009919371	-0.0044060885	-0.00879214	-0.010643211	
452users	0.01027472	0.029482393	0.012144981	0.0019615935	-0.0067206477	0.003589459	-0.0063115633	-0.002977597	0.0027976865	-0.0036429162	
453users	0.017635519	-0.017897882	0.012222672	0.005103158	-0.008839129	0.01014733	-0.0026011188	0.008773092	0.0052583036	-0.0027392302	
454users	0.00163647	0.0022292358	0.0009104212	0.011343682	-0.011538497	-0.0022213182	6.193661e-05	0.015859902	0.0044737407	-0.006413103	
455users	-0.010454402	-0.003518834	0.0044101006	0.005081425	-0.007689478	-0.0047688284	0.008285764	0.015794951	0.0032115248	0.008130643	
456users	-0.016200034	-0.005540219	0.0012711968	-0.004701427	-0.00032547585	0.0040893615	-0.012654073	0.0063846866	0.0015117353	0.00054555986	
457users	0.0028827586	-0.0025754133	-0.0023892708	-0.005763366	0.005749661	0.0035907028	-0.0024042071	-0.010489319	0.0073648165	-0.0015563187	
458users	0.0031066735	0.0013710258	-0.0032417676	-0.0059354897	-0.012885633	0.012131149	0.0033564502	-0.0046525793	-0.0002632883	0.0063243224	
459users	0.019825002	-0.0052771764	-0.00023736824	-0.014128525	-0.0063505555	0.0060657756	-0.003251176	0.0068551283	-0.0016486964	-0.0075229486	
460users	0.0014393914	-0.009209373	-0.0007351178	0.0022283688	0.00551187	-0.007190197	0.013434441	-0.0014562903	-0.0024763278	-0.007267342	
461users	0.016196216	-0.0047308705	-0.004635267	-0.0021358638	0.0050675017	0.000966501	-0.0066707344	0.0071545932	-0.0013129528	0.007729171	
462users	-0.0032440443	-0.0023649388	-0.0053641647	0.0026459373	0.008359553	0.01293119	0.0014138127	0.014633023	-0.009858546	-0.015895244	
463users	-0.0064213388	0.0041776495	0.0019063477	0.0028186345	-0.005756892	-0.002496882	-0.0011569813	-0.0021599638	-0.0015284145	0.00041311473	
464users	-0.010737192	-0.0065615005	-0.009086275	0.008288176	-0.010041412	-0.0073662717	0.012077028	0.00941138	-0.0005823624	0.0012590766	
465users	-0.015252237	0.0005972287	-0.0035322693	0.00787648	0.0087472545	-0.013783947	0.021645794	0.0014904257	-0.014318683	0.007000114	
466users	0.010799509	-0.0026117882	-0.0051933527	0.0069155437	0.002812487	0.009078929	-0.004566603	0.015471572	0.008460621	0.0040867506	
467users	0.0045279264	0.0050199768	-0.014125635	0.0005290114	-0.016286429	-0.0028030497	-0.001475684	0.014728386	-0.012200699	0.0033532556	
468users	-0.0036272933	-0.0069368533	0.020714834	0.012154506	0.0009047849	-0.011360165	0.012115269	-0.0020684276	-0.009903639	-0.0027730996	
469users	-0.004033822	0.0015580303	0.010987259	0.0003125659	-0.0063087004	-0.008563835	-0.004906002	-0.016720252	-0.0026849539	-0.0012201044	
470users	-0.006149981	0.005897478	0.0011196164	-0.010024865	-0.0002708651	-0.0050634127	-0.0018341118	0.002119323	-4.417822e-06	-0.0045886007	
471users	0.0061043715	-0.006754505	-0.009104648	0.0018482951	-0.00087264256	0.008624472	0.0026590244	0.007183209	-0.005686193	0.0018533677	
472users	0.0019213516	-0.0017851151	0.006278666	-0.010082712	-0.0051897783	0.0050339005	0.0021625906	0.011626134	0.004829436	-0.005015271	
473users	-0.012877184	-0.013400582	0.0048164343	0.00019720377	-0.015482388	0.007619282	-0.0046904795	0.0033203443	-0.00097191636	-0.00015197662	
474users	-0.00052902696	0.0067726877	-0.0023006853	0.0017706001	0.012990499	0.009807983	-0.0032058277	-0.012003917	-0.013938382	0.018687552	
475users	-0.009435594	-0.012359722	0.008317792	0.007746522	-0.012483768	-0.0030182959	-0.0072726696	-0.005102492	0.0013812857	-0.003387568	
476users	-0.0059546307	-0.00396653	0.0053930767	-0.0142551055	-0.0040990165	-0.004539197	0.0063530756	0.0069825877	-0.0048233443	0.0026065488	
477users	0.008797573	0.0031784705	0.011067354	0.011115257	0.0011990018	0.0005293652	0.00014138188	-0.0017119579	-0.0061127422	0.014063801	
478users	0.019744944	0.00078189955	0.003037234	-0.0024960057	-0.00079322205	0.01595317	0.0013203286	-0.0028970065	0.003828227	-0.0153848	
479users	0.015050251	0.0035184033	-0.002293368	0.005836344	-0.006248354	-0.009490571	0.021016877	-0.007327439	-0.0030662292	0.002318232	
480users	-0.013440645	0.0106281	0.010406058	-0.010086003	0.0051180115	0.006210769	0.006852466	-0.014018349	-0.0050428053	-0.0034770817	
481users	0.009181994	0.010179179	0.023552895	0.0075602946	0.020930447	0.0028751711	0.0013328777	0.0035454133	0.009857195	-0.0053604427	
482users	-0.010682841	-0.0034243634	-0.0039868844	0.0014929192	0.006963311	0.008671939	0.01142042	0.0037869187	0.0069210683	0.0061396156	
483users	-0.0010049049	-0.0048548193	0.00079286494	-0.016667372	-0.006416431	-0.004840369	-0.009146691	0.006042012	0.0044348114	-0.0017610838	
484users	-0.001492508	-0.012448721	-0.0050552757	-0.021392915	0.0017622672	-0.014892406	0.009550942	-0.0054551396	-0.003461924	0.008101217	
485users	-0.0024425872	-0.00090259267	0.014642928	-0.0028295056	0.0048890174	-0.008177738	-0.005738629	0.017394232	0.0026340166	0.0038244007	
486users	-0.00038408977	-0.0027056711	0.0012532903	-0.0040771705	-0.00046572767	0.008850425	0.002487181	0.0072792857	0.005859875	-0.003746357	
487users	-0.007814547	-0.0036479754	-0.0063729417	-0.0012702236	0.0034423203	0.007958023	-0.004570907	0.008336973	-0.0026095018	0.0013581327	
488users	-0.0067741224	-0.013564697	0.0038268932	0.0049374294	0.007743588	0.009254188	-0.0010987932	0.005352024	-0.0033521347	-0.010302454	
489users	0.003080142	0.007319835	-0.010526867	-0.005609065	0.006735878	0.011513312	-0.016845886	0.004179291	-0.0065663503	-0.006186871	
490users	0.01466659	0.0008819275	0.0077399416	-0.005156187	0.011111647	0.0013818678	0.005983673	-0.007014543	0.007011207	0.0063382224	
491users	-0.020598682	0.004055667	0.00025691645	0.0063806763	0.00044633762	-0.0040274747	0.01012082	-0.006732201	-0.002401714	0.012586481	
492users	0.003947646	-0.009065468	-0.0074587753	-0.0043779365	0.004172177	-0.0041657076	-0.0027544682	0.012120818	0.0014904448	-0.0051464653	
493users	-0.010517924	0.00027804944	0.007062362	-0.0035219751	0.0052581094	-0.016197084	-0.0013103277	-0.019214114	-0.005244819	-0.0018711076	
494users	0.0016164038	0.002212199	-0.002399995	0.008346491	-0.0056233704	-0.0026720765	-0.00773734	-0.0043047764	0.0028877123	-0.01007616	
495users	0.004446585	-0.005865775	0.0033335	-0.007863777	0.003722941	0.0037418073	-0.010691595	-0.0146911545	-0.008859176	-0.0026160611	
496users	-0.0037756967	-0.0051548365	-0.007783151	0.006307366	0.002024386	0.0019081307	-0.020125914	-0.013575723	-0.009764012	0.009225625	
497users	-0.0022847627	0.0018311014	-0.003709339	0.023489686	-0.0057272376	0.0031063256	-0.00051370886	-0.005072157	-0.00058150163	0.007317735	
498users	0.010880781	0.006500947	-0.0029323604	-0.0017907623	-0.013328998	-0.0049148872	0.0014932503	0.008011782	0.004954713	-0.0067045377	
499users	0.005448387	0.003373625	-0.005979883	-0.0048593353	-0.014291562	-0.0020503253	-0.0019117272	-0.00034630456	-0.0072346763	0.0024699857	
500users	0.0037787159	-5.529126e-05	0.020039976	0.0022619625	-0.0053321132	-0.009352266	0.02131404	0.0025077953	0.0061231637	-0.002797288	
501users	4.9809627e-05	0.008839512	-0.0036325145	-0.0020852222	0.003188749	0.011764821	-0.012026081	-0.007581089	0.01434236	0.0025793836	
502users	0.006740544	-0.0028246166	-0.005263776	0.009617226	0.00077419286	0.008932307	-0.011460695	0.0035066807	-0.0012462252	-0.0050261216	
503users	-0.022809599	-0.00436305	0.00936846	0.008727254	0.0033837007	-0.0015367108	-0.010623815	-0.01059468	0.0036882397	0.012137906	
504users	-0.00117294	-0.0046656732	-0.0037031728	0.005340443	-0.0069477316	-0.003250533	-0.004459866	0.0012107182	-0.0129893	0.0035175623	
505users	-0.0012626977	0.0058985995	-0.005894763	-0.00402389	-0.0043892176	-0.0056496956	-0.0029718578	-0.00078026106	0.0040648654	0.0061418647	
506users	0.0015396139	0.0031998751	0.005184001	0.0031514503	0.0069190767	-0.0020589936	-0.0013201822	0.012910589	-0.0010593407	0.0007294737	
507users	0.003710721	-0.0019290448	-0.003538892	-0.009732714	0.01188145	0.026301725	0.018424392	0.010791896	0.0014715206	-0.004142899	
508users	0.016620494	-0.0073139393	0.015545276	0.0065201637	-0.0051929555	-0.0020122274	0.009736964	0.021048896	0.0035583302	-0.009323503	
509users	0.0048864433	0.0028028765	-0.0008800264	0.001979105	0.010869809	0.00046221135	-0.0072090733	-0.007847078	0.0049400986	-0.0052496633	
510users	0.005545416	-0.020112202	-0.00960011	0.0020706782	0.0013080649	-0.007533592	-0.004649494	-0.0027097901	0.006024438	0.01089783	
511users	0.00019522251	-0.00090631115	-0.000651198	0.002455103	0.016205305	0.0009308765	-0.006464054	0.004500698	0.009396082	-0.004879401	
512users	0.0014303195	-0.0026823191	-0.0011319364	0.0109509295	-0.0075815744	0.0061709923	0.0049707727	-0.0037430688	-0.009701335	-0.0029448795	
513users	0.009692534	0.0012407687	-0.016138703	0.0017110715	-0.0073513896	-0.003979091	0.004141213	-0.0004443486	0.013260087	-0.011098033	
514users	-0.008343734	-0.0029567827	-0.004473019	-0.014571629	0.008607844	0.004118845	-0.0083640935	0.008576278	-0.0074155526	-0.0023935675	
515users	-0.0041522677	0.01745881	-0.011755462	0.01948146	0.0042450065	0.0036755535	0.0067633316	0.013814837	0.011986712	-0.017914595	
516users	0.0022565965	-0.007814259	0.0050509656	-0.0007154433	-0.014463592	0.0018720275	-0.0048465817	0.0010217949	0.0071023246	0.0032592628	
517users	-0.013537142	0.009281886	-0.0022375565	0.010681914	0.0027045633	-0.0022368943	0.0014268042	0.009250716	-0.00018870954	0.0026919865	
518users	-0.0035090826	0.0022263767	0.002550392	0.00554958	0.0032643324	-0.0006919482	-0.001051646	-0.005738942	-0.006758316	0.015717477	
519users	0.007096207	-0.0073908763	0.0034522293	-0.0014905395	0.013679667	-0.011884652	-0.015710602	-0.0001584375	-0.0035846732	0.006323578	
520users	0.008209183	-0.0065899463	0.012599213	0.00998981	-3.6325127e-05	-0.0023436325	-0.009078519	-0.00064239587	-0.0048728483	0.016737465	
521users	-0.011289098	-0.0073565254	-0.0031693166	0.00037169165	-0.0018410081	-0.0039188224	0.011771775	-0.00985268	-0.010470033	-0.012892378	
522users	0.003673886	0.007896429	-0.00025909688	0.008069058	-0.0029605003	0.00028886157	-0.008884838	0.002238674	0.008029128	-0.008128119	
523users	0.016506203	-0.008480037	-0.00060563657	-0.0062573086	-0.0136939045	-0.0075054336	0.020694252	0.0052044005	-0.0034903702	-0.0006431876	
524users	0.0099545065	-0.0012735847	0.000740704	0.0074426876	0.009434877	-0.0055267205	0.0035791253	0.017991947	0.0050762226	-0.012101342	
525users	0.0024725783	0.00089267007	-0.006784676	0.0021925557	0.0074705277	0.0014588906	0.004877176	0.0050394367	0.0010820186	0.01710037	
526users	0.004422592	-0.013826548	-0.010025647	0.008244985	0.021103775	-0.0019501584	-0.012183058	-0.0056463904	-0.0074220193	0.00051199814	
527users	-0.006917629	0.0014883219	0.0125724785	0.002120526	0.012445846	-0.014849421	0.0038529206	-0.005984409	-0.008629995	0.0003823235	
528users	0.0072504943	0.0003556598	-0.0014216156	0.0051103984	-0.0078382725	0.0019074511	0.0105510065	0.018186174	-0.022058953	-0.013400497	
529users	-0.004167385	0.0063884123	0.0100691905	0.008963494	-0.008784818	-0.008144925	-0.010126283	0.0014561084	0.0045990017	-0.00065683835	
530users	0.008939264	-0.0054416	0.015556776	-0.008832249	0.012980175	0.004463963	0.0013793217	0.019708758	-0.0058283457	-0.00073665427	
531users	-0.005469393	0.016346851	0.005873292	-0.01396489	0.0010134049	-0.004142599	-0.006851429	-0.0045580184	0.0034247576	0.006244982	
532users	0.0025566507	-0.008710539	0.005410682	-0.0063856742	0.005769749	0.006147062	-0.0031042916	0.017841903	-0.0048547536	0.011754328	
533users	-0.010001647	0.0010182216	0.012817959	-0.007428608	0.008850838	-0.0028428934	-0.011129778	-0.0022314668	-0.006539726	0.0006960065	
534users	-0.017480427	-0.012039353	-0.023265397	-0.0077770026	0.0067594587	0.0009937963	0.001985182	-0.004508424	0.0029459295	-0.009490097	
535users	-0.003189383	-0.008533907	0.0021603284	-0.006262719	-0.0154817095	0.0010701446	-0.008456042	-0.011094849	-0.0020829304	0.005011296	
536users	0.0030358895	0.006796163	0.009840259	0.0060503734	-0.011346542	-0.006732497	0.012469588	0.000838284	0.019248735	-0.0033193005	
537users	0.013522617	-0.0040857196	-0.0081540225	-0.022412352	0.0047866004	0.024220038	-0.014456738	0.0008930048	0.00074919977	-0.007979256	
538users	0.0026496376	-0.0014751435	0.0030593642	0.008142896	0.012652176	0.0051452224	-0.0069306535	-0.00208316	-0.0047000702	0.00015744595	
539users	-0.0077203037	0.0017266803	0.0012287222	-0.001998437	-0.011903972	-0.0023295777	0.016942237	-0.0064954697	-0.019287726	0.01069323	
540users	-0.0041983644	-0.0050739776	-0.0004864538	0.0125948815	-0.0032909443	-0.00029474593	-0.010854713	-0.0057740747	-0.008170249	0.00304722	
541users	0.0036330684	0.0039082845	0.0018915968	-0.010245247	-0.011234998	0.0024709061	0.0017512739	-0.0028890998	0.007039125	0.008973518	
542users	-0.01741474	0.007113241	-0.0077695567	-0.010101273	-0.0031974465	0.019430911	0.011805955	0.012534613	-0.011006679	-0.020698741	
543users	-0.011534585	-0.0012073558	0.0005214545	-0.005252642	0.0012089548	0.0019426321	0.0012812201	0.0069979858	-0.02037924	-0.0061239107	
544users	0.0059082527	-0.0007746572	0.000895968	-0.010421419	0.0066395556	-0.018386949	0.010522373	-0.010555774	-0.003186573	0.006494612	
545users	0.007310632	-0.0013658243	-0.0013804376	0.017868327	0.0024996258	-0.012441628	0.0015610352	-0.003668961	-0.008026798	0.0047046565	
546users	-0.013657308	0.0008299908	-0.0010012317	-0.0028497465	0.0018629137	0.024071123	-0.0050846315	-0.00738427	-0.0031546797	0.0034718527	
547users	0.00045223313	-0.00860452	-0.0026662012	0.0020715925	0.0031964087	-0.0073421635	0.0016711433	0.001280839	-0.0084596425	0.00054320093	
548users	-0.0010758371	-0.0026128672	0.007846897	-0.016370308	-0.0052140653	0.0039345645	-0.0062023387	-0.0056422623	0.0021990468	-0.011119111	
549users	0.006202557	-0.0005398601	0.01143999	0.015381638	0.010050964	0.00024072273	-0.0046118237	0.009586407	-0.0105636	-0.008618651	
550users	0.011480271	0.011868551	0.008814907	0.0041864896	-0.010192871	-0.0062657357	0.0036004987	-0.016473947	0.0053177397	0.004188406	
551users	0.0022381295	-0.008815784	0.0008359345	-0.002045734	0.0068305274	0.00066043006	0.0008092732	-0.013101648	-0.0054554553	0.007685866	
552users	0.012942999	0.0058804047	0.005884125	0.010812922	0.0017270128	-0.0011935554	-0.004708225	0.0034871465	0.006757396	0.0094875535	
553users	-0.008196881	0.002435835	0.008030721	-0.008589844	0.0073812865	-0.0068689077	-0.0053496785	0.0084522255	-0.0037699582	-0.016978297	
554users	-0.0054628397	0.01478506	-0.0041504763	0.009973609	0.013035569	0.003850389	-0.0077706426	0.0069701644	0.008715151	0.009186465	
555users	-0.0004252218	-0.0029008132	0.011844117	0.0016214076	-0.0104035195	0.0037060098	-0.002034697	-0.014139577	0.0035056341	-0.002801425	
556users	0.004346516	0.016938109	0.0033003062	0.0047163465	-0.008688112	-0.008861938	-0.002429934	0.0016089467	0.013147985	-0.0075846124	
557users	0.012584808	-0.0078087933	-0.00218734	-0.002346194	-0.007604876	-0.008624583	-0.011096482	-0.00083985535	0.010134525	0.002291419	
558users	0.0061682016	0.0013494062	-0.00474805	-0.000801689	0.0041643535	0.015135525	0.007736737	-0.0020369564	-0.0016886365	-0.007701063	
559users	0.010989234	0.0005458951	-0.0028209286	-0.008244856	-0.01046524	0.0026826055	-0.015781805	0.012121669	-0.009797678	-0.010404522	
560users	-0.008521527	0.010310863	0.013278011	-0.0224142	0.0005217509	0.004562294	-0.013332892	0.0014414486	-0.001065966	-0.009699568	
561users	-0.007037196	0.004964012	0.006388394	0.002065329	0.0039063017	-0.0026130665	0.0014654608	0.007737029	-0.0010880483	0.0013208217	
562users	0.0026911758	-0.018067002	0.0026754828	0.0036284786	0.00742037	-0.0034389277	-0.005344187	-0.0023025926	-0.0015645636	0.0009108866	
563users	-0.011593049	0.004495997	-0.010058097	0.00814263	-0.010860313	-0.017733367	0.014332605	-0.008675251	0.0020929542	-0.011215306	
564users	0.00016584068	0.005834336	-0.005025334	-0.008561824	0.0013256611	0.0018229708	-0.005416802	0.010847885	7.079664e-06	0.010223899	
565users	0.010951297	-0.0014253544	-0.010195365	-0.010799447	0.010100618	0.006459007	0.00085595844	-0.0019159482	0.01628495	-0.009941892	
566users	-0.016457517	-0.007194972	-0.008965675	0.010054537	0.00021618184	0.003856037	0.0034351817	0.0055513917	-0.0067966487	-0.0035646055	
567users	-0.010541576	-0.009838528	-0.0015016375	0.011703004	-0.008412823	0.016688205	-0.004508245	0.0082399435	0.005283488	0.0036235068	
568users	0.006777236	0.006704571	0.012040127	-0.014827365	-0.005917922	-0.0064700632	0.001826168	-0.002272193	0.004955004	0.011105576	
569users	0.00097164663	-0.0021087686	-0.009271476	-0.00089841214	-0.0049138996	0.00035829752	0.0045125657	0.00672004	0.011223006	-0.007856642	
570users	-0.016939167	-0.0022279234	-0.015529994	0.0037431752	-0.011475291	-0.007298191	0.022936039	0.011538643	-0.009405883	-0.014319558	
571users	-0.0023337943	-0.008197256	0.011897503	-0.015519441	0.0009295443	0.008877816	0.0013663091	0.018878901	-0.006903963	0.0020133944	
572users	-0.012840067	0.005030537	-0.0019858927	-0.0031104705	0.002963141	0.006132418	0.004788276	0.008985413	-0.008501551	0.0019819029	
573users	-0.008723194	0.007348468	-0.011041528	-0.007177275	0.006299801	-0.006079152	0.0126048885	0.011400842	-3.6507463e-05	0.004180768	
574users	-0.0026397847	0.003503761	-0.009193877	-0.0025949012	-0.002703404	-0.00012774026	-0.011143871	-0.0018918284	-0.014140912	0.007890103	
575users	0.0112610385	0.0070120655	0.0076889256	-0.008276548	-0.011633806	0.00044514032	0.008386862	-0.00062363263	0.0074479473	-0.00060491683	
576users	0.0070035798	0.0025082265	-0.0085262405	0.013080059	0.005167882	0.0073213032	-0.012430901	-0.0046885023	-0.004433955	0.0040002638	
577users	-0.009596169	0.0058976104	-0.0027406714	-0.0033747922	-0.002411201	-0.003539063	0.014673654	-0.0003897802	-0.003529682	-0.005940338	
578users	-0.010580845	0.0025178231	-0.012000324	0.01019899	-0.0017975206	-0.01128485	-0.014059211	0.013918109	-0.0030791946	0.00050499715	
579users	0.009542396	0.0018403435	0.0038331966	-0.013740082	0.008084243	-0.0026899313	-0.012343772	0.011409453	-0.0057931715	0.0051492853	
580users	-0.008752599	0.010761048	-0.008993307	0.0089200605	-0.012296314	-0.01028859	-0.009757831	-0.008430298	-0.0010408452	-0.0032244138	
581users	0.007208977	-0.0009472707	-0.0058122706	0.0032169118	-0.0051337997	-0.01223383	0.0054169185	0.018691912	0.0013105181	0.0054821013	
582users	0.0037233196	-0.0013384708	0.013365577	-0.0077007674	-0.016592948	-0.004700264	-0.004827504	0.0065384773	0.00812444	-0.0034373559	
583users	-0.0062775034	0.011753751	0.0009508167	0.007354878	-0.018779151	0.011134246	-0.013113725	-0.0014475974	-0.0169021	0.007605886	
584users	-0.006981151	-0.0022609094	-0.013274706	0.010517136	-0.010382391	0.0058816704	0.0028063597	0.014711891	-0.00064142566	-0.004556959	
585users	0.0073016244	0.00094462925	-0.0029589548	0.0040525394	0.03244633	-0.0026985183	0.0057318844	-0.0017215325	0.005774857	-0.026661249	
586users	-0.00059679133	0.0055978815	-0.0006024	0.0052731624	0.015518378	-0.008103212	0.0051552635	0.0015908999	-0.009294384	-0.0006902355	
587users	-0.009879154	0.002779018	0.009392354	0.0016398566	-0.004043628	0.006302986	-0.0005193104	0.0023702455	-0.0029360245	-0.018584805	
588users	0.003070366	0.01741783	-0.009345332	-0.0010922643	0.0022942668	-0.005770078	0.0137945255	-0.0018487868	-0.0005208555	0.0066470555	
589users	-0.004048548	-0.0023082425	-0.009146418	-0.005556617	0.001630535	-0.00059311296	0.00807041	0.0014462986	-1.4532033e-05	-0.0039566415	
590users	0.0048325877	0.0004868699	-0.007648434	0.008891761	-0.001266281	-0.0059977802	-0.0011680773	-0.00473132	-0.007669991	-0.008517501	
591users	0.0041556293	0.015120872	-0.010544723	-0.010332407	-0.004700898	0.0005274776	0.013270306	0.012824978	-0.019286111	-0.0025955103	
592users	0.013238424	-0.0023199255	0.016649636	-0.006795855	-0.0018443415	0.015616936	0.00055264233	-0.0066534774	0.006849788	-0.0066116103	
593users	-0.00429761	0.0025113937	-0.0017107449	-0.012268715	0.02116679	0.0062506082	-0.007152106	0.00627616	0.0033726515	-0.0018240492	
594users	0.003048023	0.008130637	-0.0013171138	0.011851819	0.0091422135	0.004882808	0.0044266977	-0.0022391872	-0.0026213205	0.004070244	
595users	-0.008023004	-0.002761947	-0.004956891	-0.0084560765	-0.015403395	0.008117929	-0.0011606268	-0.005643638	-0.015330108	-0.010910834	
596users	-0.004903111	0.009176516	0.0040573627	0.00012520055	-0.01236953	0.010413009	0.00022097799	0.00021122277	-0.00046214525	0.006365683	
597users	-0.01415801	0.0064423354	0.0013845791	-0.004265439	0.0068597426	0.003946734	-0.0024085692	-0.0020095906	-0.0041932617	0.0020308034	
598users	-0.0023249106	-0.008024433	-0.006382254	0.009300771	0.0025703018	-0.006367426	-0.0025158233	-0.0026357993	-0.004042239	-0.0025727823	
599users	-0.002430196	-0.0026809794	0.0006190345	-0.0013030038	0.008889733	-0.0031467238	-0.017656878	0.008775798	-0.0018086907	-0.0036158324	
600users	-1.4606203e-05	0.0086465385	-0.015833909	0.009239255	0.014948796	-0.0029217638	-0.010876814	0.004906347	-0.010481387	0.0036192103	
601users	-0.0037171545	-0.0075247334	-0.0009813597	0.003681784	0.013710505	0.00726092	0.0019068002	0.0026470744	0.0017039356	-0.0063915947	
602users	0.0075219353	0.0182331	-0.007914922	-0.003859935	0.027307097	-0.01376128	-0.0014337455	0.0027474	0.010848035	-0.0007012414	
603users	-0.0031917936	0.010007399	0.0083729215	-0.0069843056	-0.005200819	-0.011513256	-0.0026836698	0.0069331694	-0.0048498013	0.004005227	
604users	0.0024075622	0.003447736	-0.006158303	0.005620024	-0.015183331	0.002392866	0.0035342695	0.015584001	-0.014985545	-0.0019966157	
605users	0.0048031034	0.011313148	0.006144055	0.0024913722	-0.008594742	-0.0017909685	-0.0188549	0.0198441	-0.00021382899	-0.00058767095	
606users	-0.0015064186	-0.011131319	-0.0067110504	-0.013791107	-0.003045091	-0.0021711038	-0.0014301636	-0.0021137253	0.012958293	-0.0027290536	
607users	-0.015119627	-0.0036164173	-0.00097479316	0.010375024	0.010512047	0.005505091	-0.005502985	0.0005574184	-0.002650003	-0.010336072	
608users	-0.01420418	-0.0055135307	0.0009795541	-0.011710768	8.08558e-05	-0.0034334403	-0.0033556174	0.009398814	0.006714157	0.0051071523	
609users	0.0074753496	-0.0009323191	-0.0019258256	0.003941759	0.002583031	0.025979882	0.0060530794	0.0035499737	-0.010697238	-0.01312944	
610users	-0.0019284941	0.004483763	4.796637e-05	0.0064786915	-0.0005993315	0.0047469395	-0.010596652	0.0040056435	0.0031514126	0.0007181268	
611users	0.011291664	-0.010331853	-0.009786196	-0.0016502191	0.00052691944	-0.011592296	0.0071121296	-0.0024108575	0.0048242286	-0.0066639367	
612users	0.0073080044	0.012171122	-0.014165751	-0.0039004171	-0.0022291092	0.0031247141	0.005852587	-0.0024860853	-0.0067903358	-0.007960064	
613users	-0.019838419	0.0080202045	-0.0062591587	-0.010886579	-0.0095528085	0.0056113596	0.010858817	0.0029143027	-0.017485222	-0.013342947	
614users	0.004838241	0.0050815702	-0.0024200259	-0.009866977	-0.0026859543	0.006444848	0.0013292759	0.0017851291	-0.0044527547	0.0034705221	
615users	0.017202653	-0.007870451	-0.005806355	-0.005959853	0.0045571993	0.00095838093	-0.0041990434	0.0025505056	-0.0007634507	0.007968946	
616users	-0.013571747	0.0006672574	0.0013529423	-0.0017844017	0.0024072265	0.0016102577	0.005362583	0.008944826	-0.0010182417	0.009192288	
617users	0.01776297	-0.0104800565	0.0036091062	-0.0006384378	-0.0018308194	0.00363051	0.0036194439	0.009125956	0.0021775488	-0.007284504	
618users	0.0021928898	-0.010905713	-0.00024261938	-0.00535232	0.009411053	0.0027145685	0.0052084876	-0.010775157	0.0104583055	0.017937027	
619users	-0.0131648965	0.014338929	0.0024966022	0.0077054873	-0.003009221	-0.0044731703	-0.01479545	-0.008108148	6.3540596e-05	0.0016640942	
620users	0.018447619	0.005017653	-0.0015506129	0.004404114	0.0018521806	-0.0018384461	-0.0011302182	0.002600607	-0.008241878	0.013402269	
621users	0.00028788904	-0.012196885	0.006831789	0.0022525915	-0.006109431	0.004584545	-0.01040795	0.0077771777	0.0003173335	0.01388408	
622users	0.010071975	-0.0019178137	-0.012819029	0.0019252998	-0.0029822998	0.019393783	-0.017961143	0.006231236	-0.0042221816	0.010984742	
623users	0.00070011173	-0.003007986	-0.00016678832	0.012301418	-0.007230434	-0.019353816	-0.008573804	0.0014631246	0.003903421	-0.0037626699	
624users	-0.0013035884	-0.01607781	-0.00065232045	0.0035170375	-0.005945785	0.005246742	-0.0029354321	-0.00053810055	0.014246148	-0.008539791	
625users	0.0073877675	-0.006656299	0.003089766	-0.0049575577	-0.0046730256	0.0039920798	-0.0007176155	-0.008427287	-0.009914415	0.0013970295	
626users	0.0044031288	-0.0079267835	-0.0064851507	-0.005848611	-0.010942477	0.0017434887	0.00789926	-0.002867033	-0.0116940215	-0.0058820024	
627users	0.0037154458	0.004734916	-0.003268285	0.0014892647	0.0019747836	0.0024974064	0.010370014	-0.010485331	0.0003473285	0.0052529965	
628users	-0.004172293	0.009706205	-0.0013985129	0.009372807	-0.02085841	0.008214754	-0.002098143	0.009567565	0.008284518	0.0149564	
629users	0.016197257	-0.004803103	-0.008682918	0.0013469498	0.0030599046	0.0065283133	-0.003651021	0.00015605321	-0.0024659382	0.008474109	
630users	0.014590309	0.0062623504	-0.002388879	0.013199961	0.004194299	-0.0007997282	-0.0023021207	-0.0010891488	0.022068014	0.0042887684	
631users	-0.0037934775	-0.011806041	-0.0026776076	0.0050336756	0.0033954722	-0.008868621	0.009886681	-0.000563038	0.0008955135	0.0055508823	
632users	-0.0026901579	-0.0027869225	-0.0040879347	-0.006012522	0.0070084184	0.0038099585	-0.0059453724	-0.00011412176	-0.0110645	0.0020615475	
633users	0.009771502	-0.020678163	0.006866379	0.000795816	0.0016429233	-0.0003111587	-0.0012745551	0.00573457	0.010129671	-0.00842913	
634users	-0.003985718	0.011703789	0.0056070434	0.008925204	-0.009825334	0.014605096	-0.004663994	-0.0037134788	-0.001164522	-0.0071238163	
635users	0.0038157213	-0.018919693	0.0059814677	-0.00072837895	0.002381488	-0.004715691	-0.00700782	0.0040274914	0.007035806	0.005947887	
636users	0.007945178	0.0004628596	-0.0064372686	-0.0017045097	-0.002956484	-0.01025022	0.0028423413	-0.005210558	-0.00096458936	0.00013673046	
637users	-0.0065677376	0.001884747	0.0077974885	-0.0033568807	-0.011213429	-0.00063725654	0.00655297	0.00420595	0.005760805	0.008466779	
638users	-0.0020869852	-0.010814111	0.012118825	-0.012868566	-0.009933915	0.0063110087	-0.0009964472	0.010420524	-0.00607798	0.009131696	
639users	-0.00075216906	0.0034018627	-0.0025987036	-0.00958083	0.008948313	0.0027808405	-0.002541603	-0.010067952	-0.009151789	-0.013764077	
640users	-0.015086816	-0.006972332	0.0007331153	-0.014254237	0.0042201434	-0.016040776	0.009478356	0.0042202254	0.00023522726	-0.007384067	
641users	-4.209817e-05	0.0071295076	-0.0120859565	0.00773676	-0.009940122	-0.008761844	0.0018098786	0.0050358367	-0.016559588	0.009552271	
642users	0.017608905	-0.01986314	-0.004384852	-0.0036435071	0.023334226	0.0008675198	-0.008916891	-0.004479209	0.012073856	-0.00051951874	
643users	0.0018028741	0.0009820951	-0.013045426	0.0012868859	-0.018094208	-0.026622111	-0.006788565	0.007047425	-0.0011368188	-0.0029006717	
644users	0.00027038925	0.012177835	-0.011275156	-0.0040648445	-0.009730252	-0.0014536997	0.0040745805	-0.0009044897	0.002275011	-0.007795189	
645users	0.0036290877	-0.015032402	0.014698486	-0.004059201	-0.0043523684	0.002416853	-0.0013846679	0.00023605586	-0.008871558	0.0072240257	
646users	-0.004385657	-0.009608027	0.0032584472	-0.016950201	0.008440077	-0.01201824	0.014836655	-0.0047408226	-0.004355874	0.008628916	
647users	0.00063584885	0.0073799505	0.009070655	0.022810675	0.0029931294	-0.0010106361	0.0010503671	-0.0035325878	-0.0037459077	0.0053813905	
648users	-0.0054887077	-0.006705597	0.012106705	0.0016988098	-0.00091583043	-0.0051324144	0.0033897185	-0.02078913	-0.0020359235	0.0021810727	
649users	0.0101797525	-0.007056278	0.014176241	0.015761489	0.00456067	-0.009627651	-0.0070848977	0.006791768	0.0021046186	0.0075740106	
650users	-0.0141595155	-0.004663231	-0.009758562	0.0082766805	-0.0047535053	0.016147602	-0.003529269	0.014298753	-0.0013160486	0.012161508	
651users	0.015950337	0.0050183237	-0.0024223262	0.00810657	-0.009757508	-0.0051982407	0.0041760327	-0.0060719773	-0.016830426	0.012732193	
652users	-0.003293648	-0.014308513	0.0018596317	0.015334935	-0.007899982	-0.011971912	0.0012594919	-0.0066338615	0.018759914	0.011756297	
653users	0.0066275685	-0.0008686843	-0.018138511	0.004661188	0.0033812316	-0.002319216	0.0052170907	-0.006275407	0.012537799	0.009742598	
654users	0.0054696547	-0.010579416	-0.008374811	0.010894165	0.0007630071	-0.0030465003	0.0013636885	0.0064738668	0.003398065	-0.0038895279	
655users	0.0023595227	0.0025916651	0.014028291	-0.0032091464	-0.013995748	-0.0026159673	-0.015558902	0.00056143955	0.0007131802	0.0006042147	
656users	-0.00011178573	-0.0017126887	0.004984192	-0.013348576	-0.00011793052	0.021523273	-0.010383724	0.0002577161	-0.008330813	-0.0040517314	
657users	0.005116713	0.002987248	0.0048000747	-0.005198913	0.0018243898	-0.0039378763	-0.014272549	-0.008248013	-0.0064184447	0.0006844131	
658users	0.003443851	5.7687306e-05	0.001574793	-0.019593231	0.00425286	0.0024897063	-0.0008774737	-0.0033790173	-0.011126065	-0.0034472037	
659users	-0.0029235815	0.0066175405	0.009474012	0.0047208783	0.0001274058	0.007923311	0.0029765377	-0.0034137038	0.004418698	0.008793362	
660users	0.006537876	-0.007379235	0.0025538406	-0.0032173353	-0.0012572075	0.009685445	0.00061245944	0.014021545	-0.005433471	0.010305031	
661users	0.0010828128	0.0063684154	-0.0089528095	-0.002324276	0.008080717	0.010756393	-0.014999728	-0.019835504	0.0061259167	0.019250477	
662users	-0.0005627117	-0.0064383987	0.00017880091	-0.014635608	-0.009963127	-0.0006849137	0.0036242835	-0.0036608512	0.00023754776	-0.0016468184	
663users	0.008302467	-0.007949136	0.002973061	0.0042933174	0.007535119	-0.015286039	0.0053133154	-0.013175494	0.019121204	-0.0023403266	
664users	-0.0019152332	0.0053240526	-0.0071985493	0.0042425557	0.01349095	-0.0027983848	0.0062051564	0.0017717632	-0.0020499479	0.0010610413	
665users	-0.003625076	0.012301484	0.011502743	0.0039791544	-0.0026793855	0.014220421	9.365945e-05	-0.009662285	-0.004911902	0.0035733294	
666users	-0.00750954	0.017256664	0.012677371	-0.008263801	-0.00205543	-0.010148291	0.007633473	-0.00892593	0.0012907228	-0.013872397	
667users	0.014795164	0.009168786	-0.0029421626	-0.00044021945	0.005477714	0.004807698	-0.0026870344	0.0014735435	0.0070567313	-0.0033137833	
668users	-0.0019704595	-0.0052680993	-0.011070688	-0.0006098675	-0.016838958	-0.0112790745	0.0087405965	0.004630461	0.0013672404	-0.003440778	
669users	-0.0067099803	0.002613534	0.001126616	0.01020824	-0.016028246	-0.0034408993	0.0015277197	0.0064346194	0.010598381	-0.005560273	
670users	-0.0008127784	0.0047178394	-0.0029786048	0.0030083936	-0.004554832	0.006965324	-0.011873288	-0.014492229	-0.017842378	-0.010325932	
671users	0.007411517	-0.0075132344	-0.015400512	0.0037849075	0.015799861	0.0014580744	-0.005797115	-0.0070837806	-0.007532458	-0.013816638	
672users	-0.013319419	0.0036192143	0.008291907	0.010975273	0.0065614074	0.014935278	-0.006134127	-0.0094487	-0.019434236	0.00043725944	
673users	0.004230175	0.007003938	0.0054734685	0.019658666	0.010060903	-0.010016156	0.0055755763	-0.016570752	0.0002460641	-0.0074257404	
674users	0.0019675407	-0.0004103628	0.0028943704	-0.00048299806	-0.0014135092	-0.0040844083	0.003030043	-0.0060062422	-0.0067145	0.019498806	
675users	0.00038089696	0.00864294	-0.008927905	-0.007718724	-0.0004984894	-0.0072823376	-0.0022039951	0.007280867	0.00567719	-0.0027118651	
676users	0.0029168718	-0.0036359176	-0.009020957	0.0061860867	0.012410306	0.0019982327	-0.015400419	0.0002401061	2.5425323e-05	-0.0018757479	
677users	0.0059459093	0.011562584	0.009031025	-0.006963572	0.002075638	-0.016962554	0.012559657	-0.003085413	-0.00957381	0.013255277	
678users	0.0036173307	-0.0015525992	0.002226065	0.007149919	-0.0011129387	0.004239776	-0.0124403825	0.003328987	0.0022208996	0.0015992207	
679users	-0.0029610372	0.016546458	0.0042071673	0.0009740712	0.004633594	-0.007249117	0.007486894	0.0034107289	-0.001436068	-0.002314571	
680users	0.0061928267	-0.0098052705	-0.018989617	-0.002167589	-0.0017422506	0.011847172	-0.006808506	0.0019500172	0.005055492	0.0017375535	
681users	0.0035485853	-0.0087892935	0.0075678444	0.0025234672	-0.009134853	-0.006203623	0.006335378	-0.0009664198	-0.017805314	0.01098241	
682users	0.008970161	0.0041733203	-0.0028417655	-0.010725816	-0.011823925	0.01520591	0.006731365	-0.0051271752	-0.0014766526	-0.0025085357	
683users	-0.00015661841	0.009891849	0.005080007	-0.0034848126	-0.00034180898	-0.0010994351	-0.0133617595	0.0009921252	-0.0019721263	-0.0020157793	
684users	0.0071502514	-0.011720564	-0.0070764897	0.00958308	0.016598197	0.009589358	-0.00075651857	-0.014081359	-0.012183029	0.0056137564	
685users	0.0009999665	0.012492637	-0.01055019	-0.001129428	-0.0046555987	0.0048402427	0.008430247	-0.0041150195	0.0077283154	-0.0065858853	
686users	0.0025268532	0.0015995797	0.009132459	0.009989221	-0.0044901976	0.0027525923	-0.010154544	-0.0030884054	0.001955587	0.012064178	
687users	0.00014308753	-0.011587688	-0.0012098799	-0.018641615	-0.0009857281	-0.0054376	0.0025775656	0.008276851	-1.4098203e-05	-0.009634475	
688users	-0.0031341487	0.011156731	0.0055593783	0.009435072	-0.00246586	-0.011040938	-0.011998639	0.00452412	-0.0005490856	-0.0015500122	
689users	-0.008330426	0.012000014	-0.004185845	0.00853419	-0.0063844565	0.01276219	-0.0075059636	0.0058497638	0.0061789895	-0.018924423	
690users	-0.0076197106	0.007407738	0.006034449	-0.007464592	-0.017576214	-0.0003876907	0.014329131	0.0051120725	0.0031588317	-0.008812621	
691users	-0.004257833	-0.0042988793	-0.016107094	-0.0061976803	-0.0009905398	0.007583539	-0.008850098	0.0059032408	-0.008538119	0.02143431	
692users	0.0027099077	-0.0089658	0.0033368375	0.005874402	0.0061344113	0.0007630733	-0.010233129	-0.00014125266	-0.009610742	0.0027958557	
693users	0.0062363385	-0.0050497083	-0.00521024	-0.005122992	0.0027003293	-0.007002308	0.0007180696	0.011445154	-0.0019700986	-0.010123519	
694users	0.0038529679	0.0020163113	0.0041760295	0.0030695857	0.0049121943	0.0007803586	-0.017628472	-0.0102828005	0.008708155	0.0005139952	
695users	-0.016657064	0.0016475248	0.016098652	-0.00036164332	0.005573379	0.0023527285	-0.012361901	0.00202749	0.0011848898	0.008276176	
696users	0.008695041	0.001490641	-0.0017459586	0.009630834	-0.016458206	0.004441055	-0.004878705	-0.009208478	-0.0019475867	0.0010479166	
697users	0.007096495	0.0014335437	-0.0020683052	-0.017452195	-0.002551098	0.004297015	-0.00030240766	-0.010969389	0.012807108	0.00040983257	
698users	-0.012909425	-0.010407616	-0.0067766234	-0.0018857702	-0.0023436933	0.00841913	-0.0020289859	-0.009731295	-0.012134529	0.0023341952	
699users	0.008571985	-0.00055864407	-0.0009515054	0.002703599	0.011944092	-0.006653821	0.00089966337	-0.017024549	0.0034065591	-0.00073292106	
700users	0.011101763	-0.0024795218	0.0010971955	-0.010718688	0.003719153	0.0038700767	0.0056745308	0.0045936876	-0.012428598	-0.0023432835	
701users	0.007341302	-0.003753868	0.01339814	-0.005327298	0.006032896	-0.005786207	0.005075172	-0.0018367751	0.01192802	0.014097043	
702users	-0.0025676459	0.0015762141	-0.0072907833	-0.010032656	-0.0017533608	0.00075539335	0.0040324884	-0.012707571	0.008408199	0.008370431	
703users	-0.0051060864	-0.01712807	-0.0009014247	-0.0056727505	-0.008117466	-0.0073382067	-0.008011876	-0.013113912	0.005952448	0.0033745302	
704users	-0.009844101	0.0037069635	0.019053731	-0.00295627	-0.001643123	1.1617634e-05	-0.020720491	0.0006828799	-0.0023731566	-0.0066457866	
705users	0.0021693816	-0.014008951	-0.0019283276	0.0024318837	0.0011185148	-0.002228771	-0.0061308923	-0.004681557	-0.010430194	-0.00478688	
706users	-0.0003732974	-0.00014895144	0.01400583	0.0031819104	0.018922143	-0.010011058	0.004111736	-0.017234623	-0.0033155929	0.015053734	
707users	-0.002611904	-0.003340944	0.00039027553	0.010003876	-0.019246088	-0.0020194827	0.01252977	-0.00023690618	-0.001000823	0.0069095143	
708users	-0.009068275	-0.013127602	-0.010571912	0.006746869	0.0005265734	-0.0064381557	-0.0137541145	-0.00748645	0.0056151487	-0.006796894	
709users	-0.010577819	-0.010841924	0.0005960604	0.02362764	0.013848699	0.0047689877	0.015189966	0.0074614156	0.003300931	0.0032464925	
710users	-0.008984602	-0.004415728	0.0062292144	-0.002423061	0.0067259367	-0.0080324225	-0.0074861143	-0.003124762	-0.006124853	0.0008069612	
711users	-0.0007543511	-0.016222019	0.02279174	-0.0034215746	-0.0071424046	-0.0033208916	0.0033430173	0.010223953	0.0013994834	0.02080063	
712users	0.0001286806	-0.0020248368	-0.004616881	-0.0054389667	0.01489221	0.023002343	0.0033564698	0.012158832	0.0056227357	0.0028746198	
713users	0.0059377044	-0.014529568	0.003586571	0.007642595	0.005030473	0.0066300263	0.007279496	0.003364404	-0.0033714457	0.0063000126	
714users	-0.012274666	0.0042771525	0.003068473	0.0064506377	-0.0028157486	-0.0037405097	0.01015672	-0.0068172617	-0.0061205477	-0.005993114	
715users	0.019018149	0.008832597	-0.0015005096	-0.0013334431	-0.010820935	0.0063237706	0.0068786656	-0.0024175732	0.0033043858	0.013456204	
716users	-0.014359629	-0.0009779577	0.0070249178	0.009731604	0.0124053685	-0.0019938021	-0.012751868	-0.025298351	-0.019179786	0.0011802418	
